<?xml version="1.0"?>
<MethodSetup Method="BDT::BDTG">
  <GeneralInfo>
    <Info name="TMVA Release" value="4.2.1 [262657]"/>
    <Info name="ROOT Release" value="6.12/07 [396295]"/>
    <Info name="Creator" value="deroy"/>
    <Info name="Date" value="Mon May 25 13:28:26 2020"/>
    <Info name="Host" value="Linux cmsbuild87.cern.ch 2.6.32-696.30.1.el6.x86_64 #1 SMP Tue May 22 06:09:36 CEST 2018 x86_64 x86_64 x86_64 GNU/Linux"/>
    <Info name="Dir" value="/grid_mnt/t3storage3/deroy/CMSSW_10_5_0/src/BDTResponse_validator/Analysis/newvar_sv"/>
    <Info name="Training events" value="83063"/>
    <Info name="TrainingTime" value="7.27766869e+01"/>
    <Info name="AnalysisType" value="Classification"/>
  </GeneralInfo>
  <Options>
    <Option name="V" modified="Yes">False</Option>
    <Option name="VerbosityLevel" modified="No">Default</Option>
    <Option name="VarTransform" modified="No">None</Option>
    <Option name="H" modified="Yes">False</Option>
    <Option name="CreateMVAPdfs" modified="No">False</Option>
    <Option name="IgnoreNegWeightsInTraining" modified="No">False</Option>
    <Option name="NTrees" modified="Yes">1000</Option>
    <Option name="MaxDepth" modified="Yes">2</Option>
    <Option name="MinNodeSize" modified="Yes">2.5%</Option>
    <Option name="nCuts" modified="Yes">20</Option>
    <Option name="BoostType" modified="Yes">Grad</Option>
    <Option name="AdaBoostR2Loss" modified="No">quadratic</Option>
    <Option name="UseBaggedBoost" modified="Yes">True</Option>
    <Option name="Shrinkage" modified="Yes">1.000000e-01</Option>
    <Option name="AdaBoostBeta" modified="No">5.000000e-01</Option>
    <Option name="UseRandomisedTrees" modified="No">False</Option>
    <Option name="UseNvars" modified="No">6</Option>
    <Option name="UsePoissonNvars" modified="No">True</Option>
    <Option name="BaggedSampleFraction" modified="Yes">5.000000e-01</Option>
    <Option name="UseYesNoLeaf" modified="No">True</Option>
    <Option name="NegWeightTreatment" modified="No">pray</Option>
    <Option name="Css" modified="No">1.000000e+00</Option>
    <Option name="Cts_sb" modified="No">1.000000e+00</Option>
    <Option name="Ctb_ss" modified="No">1.000000e+00</Option>
    <Option name="Cbb" modified="No">1.000000e+00</Option>
    <Option name="NodePurityLimit" modified="No">5.000000e-01</Option>
    <Option name="SeparationType" modified="No">giniindex</Option>
    <Option name="RegressionLossFunctionBDTG" modified="No">huber</Option>
    <Option name="HuberQuantile" modified="No">7.000000e-01</Option>
    <Option name="DoBoostMonitor" modified="No">False</Option>
    <Option name="UseFisherCuts" modified="No">False</Option>
    <Option name="MinLinCorrForFisher" modified="No">8.000000e-01</Option>
    <Option name="UseExclusiveVars" modified="No">False</Option>
    <Option name="DoPreselection" modified="No">False</Option>
    <Option name="SigToBkgFraction" modified="No">1.000000e+00</Option>
    <Option name="PruneMethod" modified="No">nopruning</Option>
    <Option name="PruneStrength" modified="No">0.000000e+00</Option>
    <Option name="PruningValFraction" modified="No">5.000000e-01</Option>
    <Option name="SkipNormalization" modified="No">False</Option>
    <Option name="nEventsMin" modified="No">0</Option>
    <Option name="UseBaggedGrad" modified="No">False</Option>
    <Option name="GradBaggingFraction" modified="No">5.000000e-01</Option>
    <Option name="UseNTrainEvents" modified="No">0</Option>
    <Option name="NNodesMax" modified="No">0</Option>
  </Options>
  <Variables NVar="34">
    <Variable VarIndex="0" Expression="selpfjetAK8NHadF" Label="selpfjetAK8NHadF" Title="selpfjetAK8NHadF" Unit="" Internal="selpfjetAK8NHadF" Type="F" Min="-1.19209290e-07" Max="9.90556598e-01"/>
    <Variable VarIndex="1" Expression="selpfjetAK8neunhadfrac" Label="selpfjetAK8neunhadfrac" Title="selpfjetAK8neunhadfrac" Unit="" Internal="selpfjetAK8neunhadfrac" Type="F" Min="0.00000000e+00" Max="1.00000668e+00"/>
    <Variable VarIndex="2" Expression="selpfjetAK8subhaddiff" Label="selpfjetAK8subhaddiff" Title="selpfjetAK8subhaddiff" Unit="" Internal="selpfjetAK8subhaddiff" Type="F" Min="-1.00000000e+02" Max="1.00000000e+00"/>
    <Variable VarIndex="3" Expression="selpfjetAK8tau21" Label="selpfjetAK8tau21" Title="selpfjetAK8tau21" Unit="" Internal="selpfjetAK8tau21" Type="F" Min="1.72001701e-02" Max="9.66703415e-01"/>
    <Variable VarIndex="4" Expression="selpfjetAK8chrad" Label="selpfjetAK8chrad" Title="selpfjetAK8chrad" Unit="" Internal="selpfjetAK8chrad" Type="F" Min="-3.32585394e-01" Max="3.28372210e-01"/>
    <Variable VarIndex="5" Expression="selpfjetAK8sdmass" Label="selpfjetAK8sdmass" Title="selpfjetAK8sdmass" Unit="" Internal="selpfjetAK8sdmass" Type="F" Min="2.19600677e-01" Max="9.16578125e+02"/>
    <Variable VarIndex="6" Expression="selpfjetAK8matchedeldxy_sv" Label="selpfjetAK8matchedeldxy_sv" Title="selpfjetAK8matchedeldxy_sv" Unit="" Internal="selpfjetAK8matchedeldxy_sv" Type="F" Min="-1.59170465e+01" Max="1.49602423e+01"/>
    <Variable VarIndex="7" Expression="selpfjetAK8matchedelcleta" Label="selpfjetAK8matchedelcleta" Title="selpfjetAK8matchedelcleta" Unit="" Internal="selpfjetAK8matchedelcleta" Type="F" Min="-2.73513031e+00" Max="2.55965686e+00"/>
    <Variable VarIndex="8" Expression="selpfjetAK8matchedelpt" Label="selpfjetAK8matchedelpt" Title="selpfjetAK8matchedelpt" Unit="" Internal="selpfjetAK8matchedelpt" Type="F" Min="5.00029898e+00" Max="1.42592468e+03"/>
    <Variable VarIndex="9" Expression="selpfjetAK8matchedelsigmaieta" Label="selpfjetAK8matchedelsigmaieta" Title="selpfjetAK8matchedelsigmaieta" Unit="" Internal="selpfjetAK8matchedelsigmaieta" Type="F" Min="0.00000000e+00" Max="7.67471939e-02"/>
    <Variable VarIndex="10" Expression="selpfjetAK8matchedelsigmaiphi" Label="selpfjetAK8matchedelsigmaiphi" Title="selpfjetAK8matchedelsigmaiphi" Unit="" Internal="selpfjetAK8matchedelsigmaiphi" Type="F" Min="0.00000000e+00" Max="8.42282474e-02"/>
    <Variable VarIndex="11" Expression="selpfjetAK8matchedelr9full" Label="selpfjetAK8matchedelr9full" Title="selpfjetAK8matchedelr9full" Unit="" Internal="selpfjetAK8matchedelr9full" Type="F" Min="1.42720938e-01" Max="4.85061455e+01"/>
    <Variable VarIndex="12" Expression="selpfjetAK8matchedelsupcl_etaw" Label="selpfjetAK8matchedelsupcl_etaw" Title="selpfjetAK8matchedelsupcl_etaw" Unit="" Internal="selpfjetAK8matchedelsupcl_etaw" Type="F" Min="1.66431202e-10" Max="1.09673187e-01"/>
    <Variable VarIndex="13" Expression="selpfjetAK8matchedelsupcl_phiw" Label="selpfjetAK8matchedelsupcl_phiw" Title="selpfjetAK8matchedelsupcl_phiw" Unit="" Internal="selpfjetAK8matchedelsupcl_phiw" Type="F" Min="2.97971453e-10" Max="6.03103817e-01"/>
    <Variable VarIndex="14" Expression="selpfjetAK8matchedelhcaloverecal" Label="selpfjetAK8matchedelhcaloverecal" Title="selpfjetAK8matchedelhcaloverecal" Unit="" Internal="selpfjetAK8matchedelhcaloverecal" Type="F" Min="0.00000000e+00" Max="4.95113251e+02"/>
    <Variable VarIndex="15" Expression="selpfjetAK8matchedelcloctftrkn" Label="selpfjetAK8matchedelcloctftrkn" Title="selpfjetAK8matchedelcloctftrkn" Unit="" Internal="selpfjetAK8matchedelcloctftrkn" Type="F" Min="-1.00000000e+00" Max="1.80000000e+01"/>
    <Variable VarIndex="16" Expression="selpfjetAK8matchedelcloctftrkchi2" Label="selpfjetAK8matchedelcloctftrkchi2" Title="selpfjetAK8matchedelcloctftrkchi2" Unit="" Internal="selpfjetAK8matchedelcloctftrkchi2" Type="F" Min="0.00000000e+00" Max="1.39625931e+02"/>
    <Variable VarIndex="17" Expression="selpfjetAK8matchedele1x5bye5x5" Label="selpfjetAK8matchedele1x5bye5x5" Title="selpfjetAK8matchedele1x5bye5x5" Unit="" Internal="selpfjetAK8matchedele1x5bye5x5" Type="F" Min="0.00000000e+00" Max="9.76589799e-01"/>
    <Variable VarIndex="18" Expression="selpfjetAK8matchedelnormchi2" Label="selpfjetAK8matchedelnormchi2" Title="selpfjetAK8matchedelnormchi2" Unit="" Internal="selpfjetAK8matchedelnormchi2" Type="F" Min="1.10911123e-01" Max="9.60976379e+02"/>
    <Variable VarIndex="19" Expression="selpfjetAK8matchedelhitsmiss" Label="selpfjetAK8matchedelhitsmiss" Title="selpfjetAK8matchedelhitsmiss" Unit="" Internal="selpfjetAK8matchedelhitsmiss" Type="F" Min="0.00000000e+00" Max="5.00000000e+00"/>
    <Variable VarIndex="20" Expression="selpfjetAK8matchedeltrkmeasure" Label="selpfjetAK8matchedeltrkmeasure" Title="selpfjetAK8matchedeltrkmeasure" Unit="" Internal="selpfjetAK8matchedeltrkmeasure" Type="F" Min="5.00000000e+00" Max="1.90000000e+01"/>
    <Variable VarIndex="21" Expression="selpfjetAK8matchedelecloverpout" Label="selpfjetAK8matchedelecloverpout" Title="selpfjetAK8matchedelecloverpout" Unit="" Internal="selpfjetAK8matchedelecloverpout" Type="F" Min="3.34107870e-04" Max="7.56379456e+02"/>
    <Variable VarIndex="22" Expression="selpfjetAK8matchedelecaletrkmomentum" Label="selpfjetAK8matchedelecaletrkmomentum" Title="selpfjetAK8matchedelecaletrkmomentum" Unit="" Internal="selpfjetAK8matchedelecaletrkmomentum" Type="F" Min="-2.15671635e+00" Max="1.15119517e+00"/>
    <Variable VarIndex="23" Expression="selpfjetAK8matchedeldeltaetacltrkcalo" Label="selpfjetAK8matchedeldeltaetacltrkcalo" Title="selpfjetAK8matchedeldeltaetacltrkcalo" Unit="" Internal="selpfjetAK8matchedeldeltaetacltrkcalo" Type="F" Min="-1.71837258e+00" Max="1.59270191e+00"/>
    <Variable VarIndex="24" Expression="selpfjetAK8matchedelsupcl_preshvsrawe" Label="selpfjetAK8matchedelsupcl_preshvsrawe" Title="selpfjetAK8matchedelsupcl_preshvsrawe" Unit="" Internal="selpfjetAK8matchedelsupcl_preshvsrawe" Type="F" Min="0.00000000e+00" Max="2.13354087e+00"/>
    <Variable VarIndex="25" Expression="selpfjetAK8matchedelpfisolsumphet" Label="selpfjetAK8matchedelpfisolsumphet" Title="selpfjetAK8matchedelpfisolsumphet" Unit="" Internal="selpfjetAK8matchedelpfisolsumphet" Type="F" Min="0.00000000e+00" Max="9.18973267e+02"/>
    <Variable VarIndex="26" Expression="selpfjetAK8matchedelpfisolsumchhadpt" Label="selpfjetAK8matchedelpfisolsumchhadpt" Title="selpfjetAK8matchedelpfisolsumchhadpt" Unit="" Internal="selpfjetAK8matchedelpfisolsumchhadpt" Type="F" Min="0.00000000e+00" Max="1.17540942e+03"/>
    <Variable VarIndex="27" Expression="selpfjetAK8matchedelpfisolsumneuhadet" Label="selpfjetAK8matchedelpfisolsumneuhadet" Title="selpfjetAK8matchedelpfisolsumneuhadet" Unit="" Internal="selpfjetAK8matchedelpfisolsumneuhadet" Type="F" Min="0.00000000e+00" Max="9.89058472e+02"/>
    <Variable VarIndex="28" Expression="selpfjetAK8matchedeletain" Label="selpfjetAK8matchedeletain" Title="selpfjetAK8matchedeletain" Unit="" Internal="selpfjetAK8matchedeletain" Type="F" Min="-3.75284195e+00" Max="2.44707346e+00"/>
    <Variable VarIndex="29" Expression="selpfjetAK8matchedelphiin" Label="selpfjetAK8matchedelphiin" Title="selpfjetAK8matchedelphiin" Unit="" Internal="selpfjetAK8matchedelphiin" Type="F" Min="-1.37579787e+00" Max="2.04094362e+00"/>
    <Variable VarIndex="30" Expression="selpfjetAK8matchedelfbrem" Label="selpfjetAK8matchedelfbrem" Title="selpfjetAK8matchedelfbrem" Unit="" Internal="selpfjetAK8matchedelfbrem" Type="F" Min="-2.92745743e+01" Max="9.98899639e-01"/>
    <Variable VarIndex="31" Expression="selpfjetAK8matchedeleoverp" Label="selpfjetAK8matchedeleoverp" Title="selpfjetAK8matchedeleoverp" Unit="" Internal="selpfjetAK8matchedeleoverp" Type="F" Min="3.58662772e-04" Max="6.86120178e+02"/>
    <Variable VarIndex="32" Expression="selpfjetAK8matchedelhovere" Label="selpfjetAK8matchedelhovere" Title="selpfjetAK8matchedelhovere" Unit="" Internal="selpfjetAK8matchedelhovere" Type="F" Min="0.00000000e+00" Max="2.06040161e+02"/>
    <Variable VarIndex="33" Expression="selpfjetAK8matchedelRho" Label="selpfjetAK8matchedelRho" Title="selpfjetAK8matchedelRho" Unit="" Internal="selpfjetAK8matchedelRho" Type="F" Min="1.20227242e+00" Max="6.66545105e+01"/>
  </Variables>
  <Spectators NSpec="0"/>
  <Classes NClass="2">
    <Class Name="Signal" Index="0"/>
    <Class Name="Background" Index="1"/>
  </Classes>
  <Transformations NTransformations="0"/>
  <MVAPdfs/>
  <Weights NTrees="1000" AnalysisType="1">
    <BinaryTree type="DecisionTree" boostWeight="1.0000000000000000e+00" itree="0">
      <Node pos="s" depth="0" NCoef="0" IVar="8" Cut="6.3507907867431641e+01" cType="1" res="-7.0946506457403302e-04" rms="4.9999949336051941e-01" purity="4.9929052591323853e-01" nType="0">
        <Node pos="l" depth="1" NCoef="0" IVar="2" Cut="3.8095238804817200e-01" cType="1" res="-4.4556275010108948e-01" rms="2.2687847912311554e-01" purity="5.4437261074781418e-02" nType="0">
          <Node pos="l" depth="2" NCoef="0" IVar="-1" Cut="0.0000000000000000e+00" cType="1" res="-9.5018930733203888e-02" rms="1.5583662688732147e-01" purity="2.4905329570174217e-02" nType="-99"/>
          <Node pos="r" depth="2" NCoef="0" IVar="-1" Cut="0.0000000000000000e+00" cType="1" res="6.4244037494063377e-03" rms="4.9896711111068726e-01" purity="5.3212201595306396e-01" nType="-99"/>
        </Node>
        <Node pos="r" depth="1" NCoef="0" IVar="11" Cut="8.6376887559890747e-01" cType="1" res="3.5390755534172058e-01" rms="3.5319885611534119e-01" purity="8.5390758514404297e-01" nType="0">
          <Node pos="l" depth="2" NCoef="0" IVar="-1" Cut="0.0000000000000000e+00" cType="1" res="-2.1434115245938301e-02" rms="4.8837941884994507e-01" purity="3.9282941818237305e-01" nType="-99"/>
          <Node pos="r" depth="2" NCoef="0" IVar="-1" Cut="0.0000000000000000e+00" cType="1" res="8.9818365871906281e-02" rms="2.1981018781661987e-01" purity="9.4909191131591797e-01" nType="-99"/>
        </Node>
      </Node>
    </BinaryTree>
    <BinaryTree type="DecisionTree" boostWeight="1.0000000000000000e+00" itree="1">
      <Node pos="s" depth="0" NCoef="0" IVar="8" Cut="7.2664184570312500e+01" cType="1" res="1.0098748316522688e-04" rms="4.6304878592491150e-01" purity="5.0018739700317383e-01" nType="0">
        <Node pos="l" depth="1" NCoef="0" IVar="8" Cut="4.6883556365966797e+01" cType="1" res="-3.8312301039695740e-01" rms="2.5360795855522156e-01" purity="7.5195319950580597e-02" nType="0">
          <Node pos="l" depth="2" NCoef="0" IVar="-1" Cut="0.0000000000000000e+00" cType="1" res="-8.5954628884792328e-02" rms="1.6377688944339752e-01" purity="2.8539570048451424e-02" nType="-99"/>
          <Node pos="r" depth="2" NCoef="0" IVar="-1" Cut="0.0000000000000000e+00" cType="1" res="-1.8182318657636642e-02" rms="4.7079402208328247e-01" purity="3.9325240254402161e-01" nType="-99"/>
        </Node>
        <Node pos="r" depth="1" NCoef="0" IVar="9" Cut="1.0641504079103470e-02" cType="1" res="3.2656228542327881e-01" rms="3.3255729079246521e-01" purity="8.6223000288009644e-01" nType="0">
          <Node pos="l" depth="2" NCoef="0" IVar="-1" Cut="0.0000000000000000e+00" cType="1" res="8.5908949375152588e-02" rms="1.7531991004943848e-01" purity="9.6614080667495728e-01" nType="-99"/>
          <Node pos="r" depth="2" NCoef="0" IVar="-1" Cut="0.0000000000000000e+00" cType="1" res="-1.9853847101330757e-02" rms="4.7691774368286133e-01" purity="4.1945108771324158e-01" nType="-99"/>
        </Node>
      </Node>
    </BinaryTree>
    <BinaryTree type="DecisionTree" boostWeight="1.0000000000000000e+00" itree="2">
      <Node pos="s" depth="0" NCoef="0" IVar="8" Cut="6.9838020324707031e+01" cType="1" res="-2.5770529173314571e-03" rms="4.3097174167633057e-01" purity="4.9723112583160400e-01" nType="0">
        <Node pos="l" depth="1" NCoef="0" IVar="2" Cut="4.7619047760963440e-01" cType="1" res="-3.5142418742179871e-01" rms="2.3879677057266235e-01" purity="6.7942626774311066e-02" nType="0">
          <Node pos="l" depth="2" NCoef="0" IVar="-1" Cut="0.0000000000000000e+00" cType="1" res="-7.9010613262653351e-02" rms="1.7204771935939789e-01" purity="3.2035484910011292e-02" nType="-99"/>
          <Node pos="r" depth="2" NCoef="0" IVar="-1" Cut="0.0000000000000000e+00" cType="1" res="2.9505478218197823e-02" rms="4.7116160392761230e-01" purity="6.3000530004501343e-01" nType="-99"/>
        </Node>
        <Node pos="r" depth="1" NCoef="0" IVar="11" Cut="7.9599398374557495e-01" cType="1" res="2.9167097806930542e-01" rms="3.2415229082107544e-01" purity="8.5933035612106323e-01" nType="0">
          <Node pos="l" depth="2" NCoef="0" IVar="-1" Cut="0.0000000000000000e+00" cType="1" res="-5.0435915589332581e-02" rms="4.1719934344291687e-01" purity="2.4472890794277191e-01" nType="-99"/>
          <Node pos="r" depth="2" NCoef="0" IVar="-1" Cut="0.0000000000000000e+00" cType="1" res="7.1143649518489838e-02" rms="2.5518336892127991e-01" purity="9.2165791988372803e-01" nType="-99"/>
        </Node>
      </Node>
    </BinaryTree>
    <BinaryTree type="DecisionTree" boostWeight="1.0000000000000000e+00" itree="3">
      <Node pos="s" depth="0" NCoef="0" IVar="2" Cut="4.7619047760963440e-01" cType="1" res="3.4959581680595875e-03" rms="4.0332004427909851e-01" purity="5.0477445125579834e-01" nType="0">
        <Node pos="l" depth="1" NCoef="0" IVar="8" Cut="7.2664611816406250e+01" cType="1" res="-2.6340246200561523e-01" rms="3.0432546138763428e-01" purity="1.5695169568061829e-01" nType="0">
          <Node pos="l" depth="2" NCoef="0" IVar="-1" Cut="0.0000000000000000e+00" cType="1" res="-7.2696082293987274e-02" rms="1.8410217761993408e-01" purity="3.7384398281574249e-02" nType="-99"/>
          <Node pos="r" depth="2" NCoef="0" IVar="-1" Cut="0.0000000000000000e+00" cType="1" res="2.5359794963151217e-03" rms="4.4984814524650574e-01" purity="5.7897615432739258e-01" nType="-99"/>
        </Node>
        <Node pos="r" depth="1" NCoef="0" IVar="3" Cut="4.5233699679374695e-01" cType="1" res="3.2646062970161438e-01" rms="2.3860205709934235e-01" purity="9.2566293478012085e-01" nType="0">
          <Node pos="l" depth="2" NCoef="0" IVar="-1" Cut="0.0000000000000000e+00" cType="1" res="7.5637988746166229e-02" rms="1.7260596156120300e-01" purity="9.6392923593521118e-01" nType="-99"/>
          <Node pos="r" depth="2" NCoef="0" IVar="-1" Cut="0.0000000000000000e+00" cType="1" res="-8.1820106133818626e-03" rms="4.5808836817741394e-01" purity="5.0361567735671997e-01" nType="-99"/>
        </Node>
      </Node>
    </BinaryTree>
    <BinaryTree type="DecisionTree" boostWeight="1.0000000000000000e+00" itree="4">
      <Node pos="s" depth="0" NCoef="0" IVar="8" Cut="7.2664184570312500e+01" cType="1" res="-3.6346220877021551e-03" rms="3.7712392210960388e-01" purity="4.9482136964797974e-01" nType="0">
        <Node pos="l" depth="1" NCoef="0" IVar="2" Cut="5.2380955219268799e-01" cType="1" res="-2.8292670845985413e-01" rms="2.3179340362548828e-01" purity="7.3241315782070160e-02" nType="0">
          <Node pos="l" depth="2" NCoef="0" IVar="-1" Cut="0.0000000000000000e+00" cType="1" res="-6.8399719893932343e-02" rms="1.8269033730030060e-01" purity="3.7364725023508072e-02" nType="-99"/>
          <Node pos="r" depth="2" NCoef="0" IVar="-1" Cut="0.0000000000000000e+00" cType="1" res="3.1894292682409286e-02" rms="4.4014802575111389e-01" purity="6.8285286426544189e-01" nType="-99"/>
        </Node>
        <Node pos="r" depth="1" NCoef="0" IVar="9" Cut="1.0507226921617985e-02" cType="1" res="2.4168516695499420e-01" rms="3.0208417773246765e-01" purity="8.6512154340744019e-01" nType="0">
          <Node pos="l" depth="2" NCoef="0" IVar="-1" Cut="0.0000000000000000e+00" cType="1" res="7.1109987795352936e-02" rms="1.6462925076484680e-01" purity="9.6782940626144409e-01" nType="-99"/>
          <Node pos="r" depth="2" NCoef="0" IVar="-1" Cut="0.0000000000000000e+00" cType="1" res="-2.3088645190000534e-02" rms="4.5505848526954651e-01" purity="4.3084734678268433e-01" nType="-99"/>
        </Node>
      </Node>
    </BinaryTree>
    <BinaryTree type="DecisionTree" boostWeight="1.0000000000000000e+00" itree="5">
      <Node pos="s" depth="0" NCoef="0" IVar="8" Cut="6.3508258819580078e+01" cType="1" res="2.5585473049432039e-03" rms="3.5395318269729614e-01" purity="5.0172376632690430e-01" nType="0">
        <Node pos="l" depth="1" NCoef="0" IVar="8" Cut="4.1183670043945312e+01" cType="1" res="-2.6500388979911804e-01" rms="2.0748323202133179e-01" purity="5.6880846619606018e-02" nType="0">
          <Node pos="l" depth="2" NCoef="0" IVar="-1" Cut="0.0000000000000000e+00" cType="1" res="-6.8586543202400208e-02" rms="1.3373090326786041e-01" purity="1.9526954740285873e-02" nType="-99"/>
          <Node pos="r" depth="2" NCoef="0" IVar="-1" Cut="0.0000000000000000e+00" cType="1" res="-2.0725905895233154e-02" rms="3.9410865306854248e-01" purity="2.7465692162513733e-01" nType="-99"/>
        </Node>
        <Node pos="r" depth="1" NCoef="0" IVar="12" Cut="1.0859852656722069e-02" cType="1" res="2.1816636621952057e-01" rms="2.9558962583541870e-01" purity="8.6018818616867065e-01" nType="0">
          <Node pos="l" depth="2" NCoef="0" IVar="-1" Cut="0.0000000000000000e+00" cType="1" res="6.4709022641181946e-02" rms="1.9426107406616211e-01" purity="9.5068073272705078e-01" nType="-99"/>
          <Node pos="r" depth="2" NCoef="0" IVar="-1" Cut="0.0000000000000000e+00" cType="1" res="-1.0597215965390205e-02" rms="4.4237846136093140e-01" purity="4.9777340888977051e-01" nType="-99"/>
        </Node>
      </Node>
    </BinaryTree>
    <BinaryTree type="DecisionTree" boostWeight="1.0000000000000000e+00" itree="6">
      <Node pos="s" depth="0" NCoef="0" IVar="2" Cut="5.2380955219268799e-01" cType="1" res="1.1581275612115860e-04" rms="3.3686426281929016e-01" purity="5.0128477811813354e-01" nType="0">
        <Node pos="l" depth="1" NCoef="0" IVar="9" Cut="1.0739644989371300e-02" cType="1" res="-1.9620396196842194e-01" rms="2.7859917283058167e-01" purity="1.6798087954521179e-01" nType="0">
          <Node pos="l" depth="2" NCoef="0" IVar="-1" Cut="0.0000000000000000e+00" cType="1" res="-6.8598834332078695e-04" rms="3.6354550719261169e-01" purity="4.6842595934867859e-01" nType="-99"/>
          <Node pos="r" depth="2" NCoef="0" IVar="-1" Cut="0.0000000000000000e+00" cType="1" res="-6.7154884338378906e-02" rms="1.7163556814193726e-01" purity="3.4607704728841782e-02" nType="-99"/>
        </Node>
        <Node pos="r" depth="1" NCoef="0" IVar="3" Cut="4.5917177200317383e-01" cType="1" res="2.5348189473152161e-01" rms="2.1406203508377075e-01" purity="9.3143969774246216e-01" nType="0">
          <Node pos="l" depth="2" NCoef="0" IVar="-1" Cut="0.0000000000000000e+00" cType="1" res="6.6723093390464783e-02" rms="1.5238897502422333e-01" purity="9.7063994407653809e-01" nType="-99"/>
          <Node pos="r" depth="2" NCoef="0" IVar="-1" Cut="0.0000000000000000e+00" cType="1" res="-1.8147476017475128e-02" rms="4.3102616071701050e-01" purity="4.7162055969238281e-01" nType="-99"/>
        </Node>
      </Node>
    </BinaryTree>
    <BinaryTree type="DecisionTree" boostWeight="1.0000000000000000e+00" itree="7">
      <Node pos="s" depth="0" NCoef="0" IVar="9" Cut="1.0306308045983315e-02" cType="1" res="-9.8123028874397278e-04" rms="3.1871324777603149e-01" purity="4.9954375624656677e-01" nType="0">
        <Node pos="l" depth="1" NCoef="0" IVar="8" Cut="5.8612907409667969e+01" cType="1" res="1.8884092569351196e-01" rms="2.4790884554386139e-01" purity="8.4077745676040649e-01" nType="0">
          <Node pos="l" depth="2" NCoef="0" IVar="-1" Cut="0.0000000000000000e+00" cType="1" res="-3.4739807248115540e-02" rms="3.2601419091224670e-01" purity="1.6872109472751617e-01" nType="-99"/>
          <Node pos="r" depth="2" NCoef="0" IVar="-1" Cut="0.0000000000000000e+00" cType="1" res="6.2054548412561417e-02" rms="1.7101578414440155e-01" purity="9.6321892738342285e-01" nType="-99"/>
        </Node>
        <Node pos="r" depth="1" NCoef="0" IVar="20" Cut="1.4333333015441895e+01" cType="1" res="-2.1731942892074585e-01" rms="2.4379026889801025e-01" purity="1.1064350605010986e-01" nType="0">
          <Node pos="l" depth="2" NCoef="0" IVar="-1" Cut="0.0000000000000000e+00" cType="1" res="-6.1799973249435425e-02" rms="1.9969789683818817e-01" purity="6.1245761811733246e-02" nType="-99"/>
          <Node pos="r" depth="2" NCoef="0" IVar="-1" Cut="0.0000000000000000e+00" cType="1" res="1.8943980336189270e-02" rms="3.6649972200393677e-01" purity="5.5529499053955078e-01" nType="-99"/>
        </Node>
      </Node>
    </BinaryTree>
    <BinaryTree type="DecisionTree" boostWeight="1.0000000000000000e+00" itree="8">
      <Node pos="s" depth="0" NCoef="0" IVar="8" Cut="6.9837669372558594e+01" cType="1" res="-1.6499942867085338e-03" rms="2.9969593882560730e-01" purity="4.9473217129707336e-01" nType="0">
        <Node pos="l" depth="1" NCoef="0" IVar="8" Cut="4.5130718231201172e+01" cType="1" res="-1.9570876657962799e-01" rms="2.0767726004123688e-01" purity="6.7703701555728912e-02" nType="0">
          <Node pos="l" depth="2" NCoef="0" IVar="-1" Cut="0.0000000000000000e+00" cType="1" res="-5.9996638447046280e-02" rms="1.4704827964305878e-01" purity="2.5221031159162521e-02" nType="-99"/>
          <Node pos="r" depth="2" NCoef="0" IVar="-1" Cut="0.0000000000000000e+00" cType="1" res="-6.9756973534822464e-03" rms="3.8914608955383301e-01" purity="3.4402024745941162e-01" nType="-99"/>
        </Node>
        <Node pos="r" depth="1" NCoef="0" IVar="11" Cut="8.2235819101333618e-01" cType="1" res="1.6777169704437256e-01" rms="2.6267212629318237e-01" purity="8.6754655838012695e-01" nType="0">
          <Node pos="l" depth="2" NCoef="0" IVar="-1" Cut="0.0000000000000000e+00" cType="1" res="-4.3117184191942215e-02" rms="3.8146963715553284e-01" purity="2.9474765062332153e-01" nType="-99"/>
          <Node pos="r" depth="2" NCoef="0" IVar="-1" Cut="0.0000000000000000e+00" cType="1" res="5.5417571216821671e-02" rms="1.9826363027095795e-01" purity="9.4098103046417236e-01" nType="-99"/>
        </Node>
      </Node>
    </BinaryTree>
    <BinaryTree type="DecisionTree" boostWeight="1.0000000000000000e+00" itree="9">
      <Node pos="s" depth="0" NCoef="0" IVar="8" Cut="7.2663368225097656e+01" cType="1" res="4.9785402370616794e-04" rms="2.8676548600196838e-01" purity="5.0110381841659546e-01" nType="0">
        <Node pos="l" depth="1" NCoef="0" IVar="8" Cut="4.3653686523437500e+01" cType="1" res="-1.7480142414569855e-01" rms="2.1148759126663208e-01" purity="7.4189834296703339e-02" nType="0">
          <Node pos="l" depth="2" NCoef="0" IVar="-1" Cut="0.0000000000000000e+00" cType="1" res="-5.8210354298353195e-02" rms="1.4322353899478912e-01" purity="2.3150805383920670e-02" nType="-99"/>
          <Node pos="r" depth="2" NCoef="0" IVar="-1" Cut="0.0000000000000000e+00" cType="1" res="-8.0969752743840218e-03" rms="3.8578313589096069e-01" purity="3.4268826246261597e-01" nType="-99"/>
        </Node>
        <Node pos="r" depth="1" NCoef="0" IVar="9" Cut="1.0749853216111660e-02" cType="1" res="1.5090532600879669e-01" rms="2.5578752160072327e-01" purity="8.6739760637283325e-01" nType="0">
          <Node pos="l" depth="2" NCoef="0" IVar="-1" Cut="0.0000000000000000e+00" cType="1" res="5.7994723320007324e-02" rms="1.5125973522663116e-01" purity="9.7006356716156006e-01" nType="-99"/>
          <Node pos="r" depth="2" NCoef="0" IVar="-1" Cut="0.0000000000000000e+00" cType="1" res="-2.0113315433263779e-02" rms="4.1672721505165100e-01" purity="4.2630597949028015e-01" nType="-99"/>
        </Node>
      </Node>
    </BinaryTree>
    <BinaryTree type="DecisionTree" boostWeight="1.0000000000000000e+00" itree="10">
      <Node pos="s" depth="0" NCoef="0" IVar="2" Cut="5.2380955219268799e-01" cType="1" res="7.1151950396597385e-04" rms="2.7591162919998169e-01" purity="5.0100857019424438e-01" nType="0">
        <Node pos="l" depth="1" NCoef="0" IVar="9" Cut="1.0184427723288536e-02" cType="1" res="-1.4072489738464355e-01" rms="2.4815519154071808e-01" purity="1.6815823316574097e-01" nType="0">
          <Node pos="l" depth="2" NCoef="0" IVar="-1" Cut="0.0000000000000000e+00" cType="1" res="6.7710005678236485e-03" rms="3.2974940538406372e-01" purity="5.1997792720794678e-01" nType="-99"/>
          <Node pos="r" depth="2" NCoef="0" IVar="-1" Cut="0.0000000000000000e+00" cType="1" res="-5.9330198913812637e-02" rms="1.7027305066585541e-01" purity="3.3722642809152603e-02" nType="-99"/>
        </Node>
        <Node pos="r" depth="1" NCoef="0" IVar="5" Cut="6.2092388153076172e+01" cType="1" res="1.8706651031970978e-01" rms="1.8495294451713562e-01" purity="9.3956822156906128e-01" nType="0">
          <Node pos="l" depth="2" NCoef="0" IVar="-1" Cut="0.0000000000000000e+00" cType="1" res="-3.3311937004327774e-02" rms="3.6799618601799011e-01" purity="4.3528473377227783e-01" nType="-99"/>
          <Node pos="r" depth="2" NCoef="0" IVar="-1" Cut="0.0000000000000000e+00" cType="1" res="6.1319731175899506e-02" rms="1.3193605840206146e-01" purity="9.7868525981903076e-01" nType="-99"/>
        </Node>
      </Node>
    </BinaryTree>
    <BinaryTree type="DecisionTree" boostWeight="1.0000000000000000e+00" itree="11">
      <Node pos="s" depth="0" NCoef="0" IVar="8" Cut="5.5397026062011719e+01" cType="1" res="1.6365322517231107e-03" rms="2.6375317573547363e-01" purity="5.0377857685089111e-01" nType="0">
        <Node pos="l" depth="1" NCoef="0" IVar="8" Cut="3.8594207763671875e+01" cType="1" res="-1.5804326534271240e-01" rms="1.7287881672382355e-01" purity="4.1666269302368164e-02" nType="0">
          <Node pos="l" depth="2" NCoef="0" IVar="-1" Cut="0.0000000000000000e+00" cType="1" res="-5.6563924998044968e-02" rms="1.2376866489648819e-01" purity="1.6869124025106430e-02" nType="-99"/>
          <Node pos="r" depth="2" NCoef="0" IVar="-1" Cut="0.0000000000000000e+00" cType="1" res="-2.3282943293452263e-02" rms="3.1799030303955078e-01" purity="1.7385873198509216e-01" nType="-99"/>
        </Node>
        <Node pos="r" depth="1" NCoef="0" IVar="9" Cut="1.1813906021416187e-02" cType="1" res="1.1878515779972076e-01" rms="2.5738260149955750e-01" purity="8.4280598163604736e-01" nType="0">
          <Node pos="l" depth="2" NCoef="0" IVar="-1" Cut="0.0000000000000000e+00" cType="1" res="4.9149438738822937e-02" rms="1.9337686896324158e-01" purity="9.3823570013046265e-01" nType="-99"/>
          <Node pos="r" depth="2" NCoef="0" IVar="-1" Cut="0.0000000000000000e+00" cType="1" res="-1.6472956165671349e-02" rms="3.8884764909744263e-01" purity="4.1036987304687500e-01" nType="-99"/>
        </Node>
      </Node>
    </BinaryTree>
    <BinaryTree type="DecisionTree" boostWeight="1.0000000000000000e+00" itree="12">
      <Node pos="s" depth="0" NCoef="0" IVar="9" Cut="1.0697901248931885e-02" cType="1" res="-6.3510256586596370e-04" rms="2.5696453452110291e-01" purity="5.0114667415618896e-01" nType="0">
        <Node pos="l" depth="1" NCoef="0" IVar="2" Cut="2.8571429848670959e-01" cType="1" res="1.0702014714479446e-01" rms="2.2564226388931274e-01" purity="8.0861634016036987e-01" nType="0">
          <Node pos="l" depth="2" NCoef="0" IVar="-1" Cut="0.0000000000000000e+00" cType="1" res="-1.8904358148574829e-02" rms="2.9835838079452515e-01" purity="3.2756718993186951e-01" nType="-99"/>
          <Node pos="r" depth="2" NCoef="0" IVar="-1" Cut="0.0000000000000000e+00" cType="1" res="5.4039672017097473e-02" rms="1.5993148088455200e-01" purity="9.6489238739013672e-01" nType="-99"/>
        </Node>
        <Node pos="r" depth="1" NCoef="0" IVar="20" Cut="1.4333333015441895e+01" cType="1" res="-1.3610765337944031e-01" rms="2.2828911244869232e-01" purity="1.1422920972108841e-01" nType="0">
          <Node pos="l" depth="2" NCoef="0" IVar="-1" Cut="0.0000000000000000e+00" cType="1" res="-5.2160680294036865e-02" rms="1.9310943782329559e-01" purity="6.0235884040594101e-02" nType="-99"/>
          <Node pos="r" depth="2" NCoef="0" IVar="-1" Cut="0.0000000000000000e+00" cType="1" res="2.6254056021571159e-02" rms="3.3480066061019897e-01" purity="5.7341104745864868e-01" nType="-99"/>
        </Node>
      </Node>
    </BinaryTree>
    <BinaryTree type="DecisionTree" boostWeight="1.0000000000000000e+00" itree="13">
      <Node pos="s" depth="0" NCoef="0" IVar="9" Cut="1.0739644989371300e-02" cType="1" res="-2.6158003602176905e-03" rms="2.4637530744075775e-01" purity="4.9607372283935547e-01" nType="0">
        <Node pos="l" depth="1" NCoef="0" IVar="2" Cut="1.4285714924335480e-01" cType="1" res="9.9211372435092926e-02" rms="2.1871124207973480e-01" purity="8.1274902820587158e-01" nType="0">
          <Node pos="l" depth="2" NCoef="0" IVar="-1" Cut="0.0000000000000000e+00" cType="1" res="-2.5416618213057518e-02" rms="2.7418777346611023e-01" purity="2.5424122810363770e-01" nType="-99"/>
          <Node pos="r" depth="2" NCoef="0" IVar="-1" Cut="0.0000000000000000e+00" cType="1" res="4.8843510448932648e-02" rms="1.7843660712242126e-01" purity="9.4026541709899902e-01" nType="-99"/>
        </Node>
        <Node pos="r" depth="1" NCoef="0" IVar="3" Cut="1.6837155818939209e-01" cType="1" res="-1.2716612219810486e-01" rms="2.1964229643344879e-01" purity="1.0873097181320190e-01" nType="0">
          <Node pos="l" depth="2" NCoef="0" IVar="-1" Cut="0.0000000000000000e+00" cType="1" res="4.1659966111183167e-02" rms="3.2251548767089844e-01" purity="7.1381920576095581e-01" nType="-99"/>
          <Node pos="r" depth="2" NCoef="0" IVar="-1" Cut="0.0000000000000000e+00" cType="1" res="-4.8850912600755692e-02" rms="1.9376695156097412e-01" purity="6.7103423178195953e-02" nType="-99"/>
        </Node>
      </Node>
    </BinaryTree>
    <BinaryTree type="DecisionTree" boostWeight="1.0000000000000000e+00" itree="14">
      <Node pos="s" depth="0" NCoef="0" IVar="2" Cut="4.7619047760963440e-01" cType="1" res="-1.0049429256469011e-03" rms="2.3978020250797272e-01" purity="5.0154620409011841e-01" nType="0">
        <Node pos="l" depth="1" NCoef="0" IVar="10" Cut="1.1607458814978600e-02" cType="1" res="-1.0809630155563354e-01" rms="2.2620441019535065e-01" purity="1.5225620567798615e-01" nType="0">
          <Node pos="l" depth="2" NCoef="0" IVar="-1" Cut="0.0000000000000000e+00" cType="1" res="1.4281091280281544e-02" rms="2.8165864944458008e-01" purity="5.5584824085235596e-01" nType="-99"/>
          <Node pos="r" depth="2" NCoef="0" IVar="-1" Cut="0.0000000000000000e+00" cType="1" res="-4.6738479286432266e-02" rms="2.0369386672973633e-01" purity="8.3079069852828979e-02" nType="-99"/>
        </Node>
        <Node pos="r" depth="1" NCoef="0" IVar="5" Cut="7.2712432861328125e+01" cType="1" res="1.3091030716896057e-01" rms="1.8373468518257141e-01" purity="9.3180191516876221e-01" nType="0">
          <Node pos="l" depth="2" NCoef="0" IVar="-1" Cut="0.0000000000000000e+00" cType="1" res="-1.5916589647531509e-02" rms="3.3216589689254761e-01" purity="5.7026749849319458e-01" nType="-99"/>
          <Node pos="r" depth="2" NCoef="0" IVar="-1" Cut="0.0000000000000000e+00" cType="1" res="5.4423615336418152e-02" rms="1.4591383934020996e-01" purity="9.7068399190902710e-01" nType="-99"/>
        </Node>
      </Node>
    </BinaryTree>
    <BinaryTree type="DecisionTree" boostWeight="1.0000000000000000e+00" itree="15">
      <Node pos="s" depth="0" NCoef="0" IVar="2" Cut="3.8095238804817200e-01" cType="1" res="1.3216222869232297e-03" rms="2.3248676955699921e-01" purity="5.0254404544830322e-01" nType="0">
        <Node pos="l" depth="1" NCoef="0" IVar="10" Cut="1.1019217781722546e-02" cType="1" res="-1.0156856477260590e-01" rms="2.1452303230762482e-01" purity="1.2835280597209930e-01" nType="0">
          <Node pos="l" depth="2" NCoef="0" IVar="-1" Cut="0.0000000000000000e+00" cType="1" res="1.3987456448376179e-02" rms="2.7657705545425415e-01" purity="5.5421924591064453e-01" nType="-99"/>
          <Node pos="r" depth="2" NCoef="0" IVar="-1" Cut="0.0000000000000000e+00" cType="1" res="-4.4082704931497574e-02" rms="1.9885003566741943e-01" purity="7.8218564391136169e-02" nType="-99"/>
        </Node>
        <Node pos="r" depth="1" NCoef="0" IVar="5" Cut="6.2092388153076172e+01" cType="1" res="1.1325260996818542e-01" rms="1.9682608544826508e-01" purity="9.0961486101150513e-01" nType="0">
          <Node pos="l" depth="2" NCoef="0" IVar="-1" Cut="0.0000000000000000e+00" cType="1" res="-3.4481983631849289e-02" rms="3.3539849519729614e-01" purity="3.8824757933616638e-01" nType="-99"/>
          <Node pos="r" depth="2" NCoef="0" IVar="-1" Cut="0.0000000000000000e+00" cType="1" res="4.9911417067050934e-02" rms="1.6485323011875153e-01" purity="9.5302921533584595e-01" nType="-99"/>
        </Node>
      </Node>
    </BinaryTree>
    <BinaryTree type="DecisionTree" boostWeight="1.0000000000000000e+00" itree="16">
      <Node pos="s" depth="0" NCoef="0" IVar="2" Cut="5.2380955219268799e-01" cType="1" res="-3.8759384187869728e-04" rms="2.2576197981834412e-01" purity="5.0097972154617310e-01" nType="0">
        <Node pos="l" depth="1" NCoef="0" IVar="9" Cut="1.0739644989371300e-02" cType="1" res="-8.7297238409519196e-02" rms="2.2630871832370758e-01" purity="1.6386984288692474e-01" nType="0">
          <Node pos="l" depth="2" NCoef="0" IVar="-1" Cut="0.0000000000000000e+00" cType="1" res="-2.4652245920151472e-03" rms="3.1423798203468323e-01" purity="4.5571556687355042e-01" nType="-99"/>
          <Node pos="r" depth="2" NCoef="0" IVar="-1" Cut="0.0000000000000000e+00" cType="1" res="-5.0061013549566269e-02" rms="1.5955545008182526e-01" purity="3.1140506267547607e-02" nType="-99"/>
        </Node>
        <Node pos="r" depth="1" NCoef="0" IVar="5" Cut="6.2196052551269531e+01" cType="1" res="1.1282020807266235e-01" rms="1.6730709373950958e-01" purity="9.4009631872177124e-01" nType="0">
          <Node pos="l" depth="2" NCoef="0" IVar="-1" Cut="0.0000000000000000e+00" cType="1" res="-2.1237026900053024e-02" rms="3.3550253510475159e-01" purity="4.7422933578491211e-01" nType="-99"/>
          <Node pos="r" depth="2" NCoef="0" IVar="-1" Cut="0.0000000000000000e+00" cType="1" res="5.2243519574403763e-02" rms="1.3577371835708618e-01" purity="9.7563409805297852e-01" nType="-99"/>
        </Node>
      </Node>
    </BinaryTree>
    <BinaryTree type="DecisionTree" boostWeight="1.0000000000000000e+00" itree="17">
      <Node pos="s" depth="0" NCoef="0" IVar="2" Cut="5.7142859697341919e-01" cType="1" res="-3.1103088986128569e-03" rms="2.2125798463821411e-01" purity="4.9336811900138855e-01" nType="0">
        <Node pos="l" depth="1" NCoef="0" IVar="10" Cut="1.2032606638967991e-02" cType="1" res="-7.6590389013290405e-02" rms="2.2813178598880768e-01" purity="1.8053431808948517e-01" nType="0">
          <Node pos="l" depth="2" NCoef="0" IVar="-1" Cut="0.0000000000000000e+00" cType="1" res="1.1113650165498257e-02" rms="2.6669687032699585e-01" purity="5.6120520830154419e-01" nType="-99"/>
          <Node pos="r" depth="2" NCoef="0" IVar="-1" Cut="0.0000000000000000e+00" cType="1" res="-4.0038380771875381e-02" rms="2.1056067943572998e-01" purity="9.4765126705169678e-02" nType="-99"/>
        </Node>
        <Node pos="r" depth="1" NCoef="0" IVar="5" Cut="6.2180679321289062e+01" cType="1" res="1.0312826186418533e-01" rms="1.5936093032360077e-01" purity="9.4566786289215088e-01" nType="0">
          <Node pos="l" depth="2" NCoef="0" IVar="-1" Cut="0.0000000000000000e+00" cType="1" res="-2.2845581173896790e-02" rms="3.3621904253959656e-01" purity="4.6629571914672852e-01" nType="-99"/>
          <Node pos="r" depth="2" NCoef="0" IVar="-1" Cut="0.0000000000000000e+00" cType="1" res="5.2080750465393066e-02" rms="1.2694647908210754e-01" purity="9.8071104288101196e-01" nType="-99"/>
        </Node>
      </Node>
    </BinaryTree>
    <BinaryTree type="DecisionTree" boostWeight="1.0000000000000000e+00" itree="18">
      <Node pos="s" depth="0" NCoef="0" IVar="8" Cut="5.5396209716796875e+01" cType="1" res="5.4881296819075942e-04" rms="2.1711246669292450e-01" purity="5.0200074911117554e-01" nType="0">
        <Node pos="l" depth="1" NCoef="0" IVar="8" Cut="4.0991058349609375e+01" cType="1" res="-8.9598208665847778e-02" rms="1.6224451363086700e-01" purity="4.1445385664701462e-02" nType="0">
          <Node pos="l" depth="2" NCoef="0" IVar="-1" Cut="0.0000000000000000e+00" cType="1" res="-4.7855835407972336e-02" rms="1.3382019102573395e-01" purity="2.0869189873337746e-02" nType="-99"/>
          <Node pos="r" depth="2" NCoef="0" IVar="-1" Cut="0.0000000000000000e+00" cType="1" res="-9.4802500680088997e-03" rms="2.9128006100654602e-01" purity="1.9510886073112488e-01" nType="-99"/>
        </Node>
        <Node pos="r" depth="1" NCoef="0" IVar="9" Cut="9.9787153303623199e-03" cType="1" res="6.5926738083362579e-02" rms="2.2817842662334442e-01" purity="8.3601248264312744e-01" nType="0">
          <Node pos="l" depth="2" NCoef="0" IVar="-1" Cut="0.0000000000000000e+00" cType="1" res="4.7491982579231262e-02" rms="1.5823931992053986e-01" purity="9.6716344356536865e-01" nType="-99"/>
          <Node pos="r" depth="2" NCoef="0" IVar="-1" Cut="0.0000000000000000e+00" cType="1" res="-1.7661303281784058e-02" rms="3.4537392854690552e-01" purity="3.9621669054031372e-01" nType="-99"/>
        </Node>
      </Node>
    </BinaryTree>
    <BinaryTree type="DecisionTree" boostWeight="1.0000000000000000e+00" itree="19">
      <Node pos="s" depth="0" NCoef="0" IVar="2" Cut="6.6666668653488159e-01" cType="1" res="-2.1154964342713356e-03" rms="2.1022024750709534e-01" purity="4.9625849723815918e-01" nType="0">
        <Node pos="l" depth="1" NCoef="0" IVar="10" Cut="1.1034927330911160e-02" cType="1" res="-6.0543268918991089e-02" rms="2.2534643113613129e-01" purity="2.1683464944362640e-01" nType="0">
          <Node pos="l" depth="2" NCoef="0" IVar="-1" Cut="0.0000000000000000e+00" cType="1" res="2.0357076078653336e-02" rms="2.2976548969745636e-01" purity="6.7219310998916626e-01" nType="-99"/>
          <Node pos="r" depth="2" NCoef="0" IVar="-1" Cut="0.0000000000000000e+00" cType="1" res="-3.4350000321865082e-02" rms="2.1802850067615509e-01" purity="1.3656088709831238e-01" nType="-99"/>
        </Node>
        <Node pos="r" depth="1" NCoef="0" IVar="10" Cut="2.2789368405938148e-02" cType="1" res="9.4644971191883087e-02" rms="1.3514997065067291e-01" purity="9.5900386571884155e-01" nType="0">
          <Node pos="l" depth="2" NCoef="0" IVar="-1" Cut="0.0000000000000000e+00" cType="1" res="4.3976958841085434e-02" rms="1.2336869537830353e-01" purity="9.6043521165847778e-01" nType="-99"/>
          <Node pos="r" depth="2" NCoef="0" IVar="-1" Cut="0.0000000000000000e+00" cType="1" res="5.8484353125095367e-02" rms="1.9216655194759369e-01" purity="9.4101804494857788e-01" nType="-99"/>
        </Node>
      </Node>
    </BinaryTree>
    <BinaryTree type="DecisionTree" boostWeight="1.0000000000000000e+00" itree="20">
      <Node pos="s" depth="0" NCoef="0" IVar="9" Cut="9.8994402214884758e-03" cType="1" res="3.7063364288769662e-04" rms="2.0918299257755280e-01" purity="4.9905586242675781e-01" nType="0">
        <Node pos="l" depth="1" NCoef="0" IVar="1" Cut="7.6190578937530518e-01" cType="1" res="7.3198869824409485e-02" rms="1.8415406346321106e-01" purity="8.5637444257736206e-01" nType="0">
          <Node pos="l" depth="2" NCoef="0" IVar="-1" Cut="0.0000000000000000e+00" cType="1" res="4.2448841035366058e-02" rms="1.6418147087097168e-01" purity="9.2586159706115723e-01" nType="-99"/>
          <Node pos="r" depth="2" NCoef="0" IVar="-1" Cut="0.0000000000000000e+00" cType="1" res="-2.2597678005695343e-02" rms="2.8486809134483337e-01" purity="1.7715692520141602e-01" nType="-99"/>
        </Node>
        <Node pos="r" depth="1" NCoef="0" IVar="10" Cut="2.3393303155899048e-02" cType="1" res="-7.5451917946338654e-02" rms="2.0672690868377686e-01" purity="1.2704621255397797e-01" nType="0">
          <Node pos="l" depth="2" NCoef="0" IVar="-1" Cut="0.0000000000000000e+00" cType="1" res="-4.8569716513156891e-02" rms="1.7330458760261536e-01" purity="6.2410287559032440e-02" nType="-99"/>
          <Node pos="r" depth="2" NCoef="0" IVar="-1" Cut="0.0000000000000000e+00" cType="1" res="1.5101766213774681e-02" rms="2.7656069397926331e-01" purity="3.8858619332313538e-01" nType="-99"/>
        </Node>
      </Node>
    </BinaryTree>
    <BinaryTree type="DecisionTree" boostWeight="1.0000000000000000e+00" itree="21">
      <Node pos="s" depth="0" NCoef="0" IVar="9" Cut="9.6661495044827461e-03" cType="1" res="1.4891634928062558e-03" rms="2.0127791166305542e-01" purity="4.9924433231353760e-01" nType="0">
        <Node pos="l" depth="1" NCoef="0" IVar="0" Cut="3.6371931433677673e-01" cType="1" res="7.4062950909137726e-02" rms="1.7359369993209839e-01" purity="8.7316119670867920e-01" nType="0">
          <Node pos="l" depth="2" NCoef="0" IVar="-1" Cut="0.0000000000000000e+00" cType="1" res="-1.4403698034584522e-02" rms="2.3350204527378082e-01" purity="3.3339506387710571e-01" nType="-99"/>
          <Node pos="r" depth="2" NCoef="0" IVar="-1" Cut="0.0000000000000000e+00" cType="1" res="4.4172089546918869e-02" rms="1.6162247955799103e-01" purity="9.2958313226699829e-01" nType="-99"/>
        </Node>
        <Node pos="r" depth="1" NCoef="0" IVar="20" Cut="1.4333333015441895e+01" cType="1" res="-6.5944366157054901e-02" rms="2.0177854597568512e-01" purity="1.5181136131286621e-01" nType="0">
          <Node pos="l" depth="2" NCoef="0" IVar="-1" Cut="0.0000000000000000e+00" cType="1" res="-3.8664635270833969e-02" rms="1.8447387218475342e-01" purity="1.1192700266838074e-01" nType="-99"/>
          <Node pos="r" depth="2" NCoef="0" IVar="-1" Cut="0.0000000000000000e+00" cType="1" res="2.6557378470897675e-02" rms="2.8692728281021118e-01" purity="5.5415081977844238e-01" nType="-99"/>
        </Node>
      </Node>
    </BinaryTree>
    <BinaryTree type="DecisionTree" boostWeight="1.0000000000000000e+00" itree="22">
      <Node pos="s" depth="0" NCoef="0" IVar="9" Cut="1.0184427723288536e-02" cType="1" res="-8.9815788669511676e-04" rms="2.0268072187900543e-01" purity="5.0081056356430054e-01" nType="0">
        <Node pos="l" depth="1" NCoef="0" IVar="1" Cut="8.0952489376068115e-01" cType="1" res="5.1818639039993286e-02" rms="1.9322688877582550e-01" purity="8.3634191751480103e-01" nType="0">
          <Node pos="l" depth="2" NCoef="0" IVar="-1" Cut="0.0000000000000000e+00" cType="1" res="3.3963490277528763e-02" rms="1.8377144634723663e-01" purity="8.9865553379058838e-01" nType="-99"/>
          <Node pos="r" depth="2" NCoef="0" IVar="-1" Cut="0.0000000000000000e+00" cType="1" res="-3.8479041308164597e-02" rms="2.3218615353107452e-01" purity="9.2666566371917725e-02" nType="-99"/>
        </Node>
        <Node pos="r" depth="1" NCoef="0" IVar="10" Cut="2.4634046480059624e-02" cType="1" res="-6.1221584677696228e-02" rms="1.9632473587989807e-01" purity="1.1686451733112335e-01" nType="0">
          <Node pos="l" depth="2" NCoef="0" IVar="-1" Cut="0.0000000000000000e+00" cType="1" res="-4.3926436454057693e-02" rms="1.6498099267482758e-01" purity="5.3094804286956787e-02" nType="-99"/>
          <Node pos="r" depth="2" NCoef="0" IVar="-1" Cut="0.0000000000000000e+00" cType="1" res="1.6321657225489616e-02" rms="2.7615717053413391e-01" purity="4.1065680980682373e-01" nType="-99"/>
        </Node>
      </Node>
    </BinaryTree>
    <BinaryTree type="DecisionTree" boostWeight="1.0000000000000000e+00" itree="23">
      <Node pos="s" depth="0" NCoef="0" IVar="9" Cut="1.0184427723288536e-02" cType="1" res="1.7640525475144386e-03" rms="1.9519215822219849e-01" purity="4.9998059868812561e-01" nType="0">
        <Node pos="l" depth="1" NCoef="0" IVar="8" Cut="5.2870899200439453e+01" cType="1" res="5.2413269877433777e-02" rms="1.8052075803279877e-01" purity="8.4653133153915405e-01" nType="0">
          <Node pos="l" depth="2" NCoef="0" IVar="-1" Cut="0.0000000000000000e+00" cType="1" res="-2.4514077231287956e-02" rms="2.6427683234214783e-01" purity="1.2526720762252808e-01" nType="-99"/>
          <Node pos="r" depth="2" NCoef="0" IVar="-1" Cut="0.0000000000000000e+00" cType="1" res="4.1741535067558289e-02" rms="1.5346240997314453e-01" purity="9.6663683652877808e-01" nType="-99"/>
        </Node>
        <Node pos="r" depth="1" NCoef="0" IVar="3" Cut="2.1268264949321747e-01" cType="1" res="-5.4488446563482285e-02" rms="1.9547003507614136e-01" purity="1.1509122699499130e-01" nType="0">
          <Node pos="l" depth="2" NCoef="0" IVar="-1" Cut="0.0000000000000000e+00" cType="1" res="2.5346396490931511e-02" rms="2.8023266792297363e-01" purity="5.7273435592651367e-01" nType="-99"/>
          <Node pos="r" depth="2" NCoef="0" IVar="-1" Cut="0.0000000000000000e+00" cType="1" res="-3.7880670279264450e-02" rms="1.7554387450218201e-01" purity="5.9539664536714554e-02" nType="-99"/>
        </Node>
      </Node>
    </BinaryTree>
    <BinaryTree type="DecisionTree" boostWeight="1.0000000000000000e+00" itree="24">
      <Node pos="s" depth="0" NCoef="0" IVar="3" Cut="2.8636646270751953e-01" cType="1" res="2.5362868327647448e-03" rms="1.9492422044277191e-01" purity="5.0216233730316162e-01" nType="0">
        <Node pos="l" depth="1" NCoef="0" IVar="2" Cut="2.8571429848670959e-01" cType="1" res="5.8768250048160553e-02" rms="1.5736915171146393e-01" purity="8.4493201971054077e-01" nType="0">
          <Node pos="l" depth="2" NCoef="0" IVar="-1" Cut="0.0000000000000000e+00" cType="1" res="-2.3611633107066154e-02" rms="2.4118453264236450e-01" purity="1.4693607389926910e-01" nType="-99"/>
          <Node pos="r" depth="2" NCoef="0" IVar="-1" Cut="0.0000000000000000e+00" cType="1" res="4.7058172523975372e-02" rms="1.2895886600017548e-01" purity="9.6506547927856445e-01" nType="-99"/>
        </Node>
        <Node pos="r" depth="1" NCoef="0" IVar="10" Cut="1.2032606638967991e-02" cType="1" res="-3.7698488682508469e-02" rms="2.0875984430313110e-01" purity="2.5690576434135437e-01" nType="0">
          <Node pos="l" depth="2" NCoef="0" IVar="-1" Cut="0.0000000000000000e+00" cType="1" res="1.9376851618289948e-02" rms="2.0681002736091614e-01" purity="6.8919163942337036e-01" nType="-99"/>
          <Node pos="r" depth="2" NCoef="0" IVar="-1" Cut="0.0000000000000000e+00" cType="1" res="-3.1805206090211868e-02" rms="2.0338654518127441e-01" purity="1.3019058108329773e-01" nType="-99"/>
        </Node>
      </Node>
    </BinaryTree>
    <BinaryTree type="DecisionTree" boostWeight="1.0000000000000000e+00" itree="25">
      <Node pos="s" depth="0" NCoef="0" IVar="8" Cut="7.2664299011230469e+01" cType="1" res="-5.6312150263693184e-05" rms="1.9291405379772186e-01" purity="4.9761274456977844e-01" nType="0">
        <Node pos="l" depth="1" NCoef="0" IVar="8" Cut="4.6875175476074219e+01" cType="1" res="-4.7312479466199875e-02" rms="1.7299066483974457e-01" purity="7.4869729578495026e-02" nType="0">
          <Node pos="l" depth="2" NCoef="0" IVar="-1" Cut="0.0000000000000000e+00" cType="1" res="-4.0619254112243652e-02" rms="1.4060194790363312e-01" purity="2.5190679356455803e-02" nType="-99"/>
          <Node pos="r" depth="2" NCoef="0" IVar="-1" Cut="0.0000000000000000e+00" cType="1" res="1.4420402236282825e-02" rms="3.0341765284538269e-01" purity="4.2488956451416016e-01" nType="-99"/>
        </Node>
        <Node pos="r" depth="1" NCoef="0" IVar="11" Cut="7.9441583156585693e-01" cType="1" res="4.1165478527545929e-02" rms="1.9981932640075684e-01" purity="8.6637359857559204e-01" nType="0">
          <Node pos="l" depth="2" NCoef="0" IVar="-1" Cut="0.0000000000000000e+00" cType="1" res="-4.4744465500116348e-02" rms="2.8697013854980469e-01" purity="2.4662275612354279e-01" nType="-99"/>
          <Node pos="r" depth="2" NCoef="0" IVar="-1" Cut="0.0000000000000000e+00" cType="1" res="3.2698251307010651e-02" rms="1.8023253977298737e-01" purity="9.2523622512817383e-01" nType="-99"/>
        </Node>
      </Node>
    </BinaryTree>
    <BinaryTree type="DecisionTree" boostWeight="1.0000000000000000e+00" itree="26">
      <Node pos="s" depth="0" NCoef="0" IVar="9" Cut="9.6481135115027428e-03" cType="1" res="-9.7430491587147117e-04" rms="1.8911506235599518e-01" purity="4.9381524324417114e-01" nType="0">
        <Node pos="l" depth="1" NCoef="0" IVar="29" Cut="8.0989403650164604e-03" cType="1" res="4.7993820160627365e-02" rms="1.6985322535037994e-01" purity="8.6880481243133545e-01" nType="0">
          <Node pos="l" depth="2" NCoef="0" IVar="-1" Cut="0.0000000000000000e+00" cType="1" res="3.6787915974855423e-02" rms="1.5306109189987183e-01" purity="9.0155869722366333e-01" nType="-99"/>
          <Node pos="r" depth="2" NCoef="0" IVar="-1" Cut="0.0000000000000000e+00" cType="1" res="-3.7948913872241974e-02" rms="2.9711374640464783e-01" purity="3.7967061996459961e-01" nType="-99"/>
        </Node>
        <Node pos="r" depth="1" NCoef="0" IVar="9" Cut="2.0674545317888260e-02" cType="1" res="-4.5212198048830032e-02" rms="1.9464772939682007e-01" purity="1.5504901111125946e-01" nType="0">
          <Node pos="l" depth="2" NCoef="0" IVar="-1" Cut="0.0000000000000000e+00" cType="1" res="-3.9946548640727997e-02" rms="1.7209619283676147e-01" purity="1.0173010826110840e-01" nType="-99"/>
          <Node pos="r" depth="2" NCoef="0" IVar="-1" Cut="0.0000000000000000e+00" cType="1" res="1.6137432307004929e-02" rms="2.4733729660511017e-01" purity="3.6286506056785583e-01" nType="-99"/>
        </Node>
      </Node>
    </BinaryTree>
    <BinaryTree type="DecisionTree" boostWeight="1.0000000000000000e+00" itree="27">
      <Node pos="s" depth="0" NCoef="0" IVar="0" Cut="5.2162176370620728e-01" cType="1" res="-1.3701923890039325e-03" rms="1.8794885277748108e-01" purity="4.9765077233314514e-01" nType="0">
        <Node pos="l" depth="1" NCoef="0" IVar="2" Cut="3.8095238804817200e-01" cType="1" res="-4.0485832840204239e-02" rms="1.7246535420417786e-01" purity="1.9364847242832184e-01" nType="0">
          <Node pos="l" depth="2" NCoef="0" IVar="-1" Cut="0.0000000000000000e+00" cType="1" res="-3.8680717349052429e-02" rms="1.5864783525466919e-01" purity="5.4793074727058411e-02" nType="-99"/>
          <Node pos="r" depth="2" NCoef="0" IVar="-1" Cut="0.0000000000000000e+00" cType="1" res="2.7617419138550758e-02" rms="2.0168079435825348e-01" purity="8.5603845119476318e-01" nType="-99"/>
        </Node>
        <Node pos="r" depth="1" NCoef="0" IVar="27" Cut="1.8293886184692383e+01" cType="1" res="3.8673408329486847e-02" rms="1.9459652900695801e-01" purity="8.0886512994766235e-01" nType="0">
          <Node pos="l" depth="2" NCoef="0" IVar="-1" Cut="0.0000000000000000e+00" cType="1" res="3.3487446606159210e-02" rms="1.7757338285446167e-01" purity="8.6707550287246704e-01" nType="-99"/>
          <Node pos="r" depth="2" NCoef="0" IVar="-1" Cut="0.0000000000000000e+00" cType="1" res="-4.3705482035875320e-02" rms="2.6059651374816895e-01" purity="3.0437058210372925e-01" nType="-99"/>
        </Node>
      </Node>
    </BinaryTree>
    <BinaryTree type="DecisionTree" boostWeight="1.0000000000000000e+00" itree="28">
      <Node pos="s" depth="0" NCoef="0" IVar="2" Cut="7.1428573131561279e-01" cType="1" res="2.5593640748411417e-04" rms="1.8692210316658020e-01" purity="4.9782174825668335e-01" nType="0">
        <Node pos="l" depth="1" NCoef="0" IVar="17" Cut="1.8499173223972321e-01" cType="1" res="-3.0489226803183556e-02" rms="2.1096701920032501e-01" purity="2.4820140004158020e-01" nType="0">
          <Node pos="l" depth="2" NCoef="0" IVar="-1" Cut="0.0000000000000000e+00" cType="1" res="1.1737041175365448e-02" rms="2.3744834959506989e-01" purity="5.2411925792694092e-01" nType="-99"/>
          <Node pos="r" depth="2" NCoef="0" IVar="-1" Cut="0.0000000000000000e+00" cType="1" res="-3.0164664611220360e-02" rms="1.9696505367755890e-01" purity="1.4968283474445343e-01" nType="-99"/>
        </Node>
        <Node pos="r" depth="1" NCoef="0" IVar="9" Cut="1.8050208687782288e-02" cType="1" res="5.7769771665334702e-02" rms="1.0939258337020874e-01" purity="9.6477735042572021e-01" nType="0">
          <Node pos="l" depth="2" NCoef="0" IVar="-1" Cut="0.0000000000000000e+00" cType="1" res="4.0506441146135330e-02" rms="9.8844125866889954e-02" purity="9.6680855751037598e-01" nType="-99"/>
          <Node pos="r" depth="2" NCoef="0" IVar="-1" Cut="0.0000000000000000e+00" cType="1" res="5.5088069289922714e-02" rms="1.4546436071395874e-01" purity="9.4174981117248535e-01" nType="-99"/>
        </Node>
      </Node>
    </BinaryTree>
    <BinaryTree type="DecisionTree" boostWeight="1.0000000000000000e+00" itree="29">
      <Node pos="s" depth="0" NCoef="0" IVar="3" Cut="5.1829099655151367e-01" cType="1" res="2.3217271082103252e-03" rms="1.8406216800212860e-01" purity="5.0252008438110352e-01" nType="0">
        <Node pos="l" depth="1" NCoef="0" IVar="2" Cut="2.3809523880481720e-01" cType="1" res="2.2955106571316719e-02" rms="1.8402807414531708e-01" purity="6.3413804769515991e-01" nType="0">
          <Node pos="l" depth="2" NCoef="0" IVar="-1" Cut="0.0000000000000000e+00" cType="1" res="-1.7459979280829430e-02" rms="2.0025263726711273e-01" purity="1.3055074214935303e-01" nType="-99"/>
          <Node pos="r" depth="2" NCoef="0" IVar="-1" Cut="0.0000000000000000e+00" cType="1" res="3.3596113324165344e-02" rms="1.6796772181987762e-01" purity="9.1200935840606689e-01" nType="-99"/>
        </Node>
        <Node pos="r" depth="1" NCoef="0" IVar="5" Cut="1.7321008300781250e+02" cType="1" res="-6.0288101434707642e-02" rms="1.6942584514617920e-01" purity="1.0313906520605087e-01" nType="0">
          <Node pos="l" depth="2" NCoef="0" IVar="-1" Cut="0.0000000000000000e+00" cType="1" res="-4.5282732695341110e-02" rms="1.5616475045681000e-01" purity="6.5315216779708862e-02" nType="-99"/>
          <Node pos="r" depth="2" NCoef="0" IVar="-1" Cut="0.0000000000000000e+00" cType="1" res="2.7324626222252846e-02" rms="2.2709207236766815e-01" purity="4.2482358217239380e-01" nType="-99"/>
        </Node>
      </Node>
    </BinaryTree>
    <BinaryTree type="DecisionTree" boostWeight="1.0000000000000000e+00" itree="30">
      <Node pos="s" depth="0" NCoef="0" IVar="2" Cut="6.6666668653488159e-01" cType="1" res="-3.1588284764438868e-03" rms="1.8687275052070618e-01" purity="4.9309977889060974e-01" nType="0">
        <Node pos="l" depth="1" NCoef="0" IVar="5" Cut="1.0785223388671875e+02" cType="1" res="-3.3392567187547684e-02" rms="2.1240966022014618e-01" purity="2.1741777658462524e-01" nType="0">
          <Node pos="l" depth="2" NCoef="0" IVar="-1" Cut="0.0000000000000000e+00" cType="1" res="-4.1208211332559586e-02" rms="1.9557107985019684e-01" purity="1.0406631231307983e-01" nType="-99"/>
          <Node pos="r" depth="2" NCoef="0" IVar="-1" Cut="0.0000000000000000e+00" cType="1" res="-2.8824983164668083e-03" rms="2.2151610255241394e-01" purity="3.1152662634849548e-01" nType="-99"/>
        </Node>
        <Node pos="r" depth="1" NCoef="0" IVar="9" Cut="1.8050208687782288e-02" cType="1" res="4.7794274985790253e-02" rms="1.1662156879901886e-01" purity="9.5770835876464844e-01" nType="0">
          <Node pos="l" depth="2" NCoef="0" IVar="-1" Cut="0.0000000000000000e+00" cType="1" res="3.6037523299455643e-02" rms="1.0446998476982117e-01" purity="9.6029114723205566e-01" nType="-99"/>
          <Node pos="r" depth="2" NCoef="0" IVar="-1" Cut="0.0000000000000000e+00" cType="1" res="4.7458771616220474e-02" rms="1.7971825599670410e-01" purity="9.3040192127227783e-01" nType="-99"/>
        </Node>
      </Node>
    </BinaryTree>
    <BinaryTree type="DecisionTree" boostWeight="1.0000000000000000e+00" itree="31">
      <Node pos="s" depth="0" NCoef="0" IVar="5" Cut="6.4891899108886719e+01" cType="1" res="-2.5479756295681000e-03" rms="1.8286632001399994e-01" purity="4.9140411615371704e-01" nType="0">
        <Node pos="l" depth="1" NCoef="0" IVar="8" Cut="9.7138946533203125e+01" cType="1" res="-8.3735190331935883e-02" rms="1.8563014268875122e-01" purity="1.1817906051874161e-01" nType="0">
          <Node pos="l" depth="2" NCoef="0" IVar="-1" Cut="0.0000000000000000e+00" cType="1" res="-4.4107642024755478e-02" rms="1.3428908586502075e-01" purity="4.2596146464347839e-02" nType="-99"/>
          <Node pos="r" depth="2" NCoef="0" IVar="-1" Cut="0.0000000000000000e+00" cType="1" res="-5.3792838007211685e-02" rms="2.8614112734794617e-01" purity="3.6451044678688049e-01" nType="-99"/>
        </Node>
        <Node pos="r" depth="1" NCoef="0" IVar="2" Cut="1.9047619402408600e-01" cType="1" res="1.2054393067955971e-02" rms="1.7848852276802063e-01" purity="5.5853259563446045e-01" nType="0">
          <Node pos="l" depth="2" NCoef="0" IVar="-1" Cut="0.0000000000000000e+00" cType="1" res="-2.0565874874591827e-02" rms="1.7729307711124420e-01" purity="1.0587314516305923e-01" nType="-99"/>
          <Node pos="r" depth="2" NCoef="0" IVar="-1" Cut="0.0000000000000000e+00" cType="1" res="3.0292229726910591e-02" rms="1.7278704047203064e-01" purity="8.9543998241424561e-01" nType="-99"/>
        </Node>
      </Node>
    </BinaryTree>
    <BinaryTree type="DecisionTree" boostWeight="1.0000000000000000e+00" itree="32">
      <Node pos="s" depth="0" NCoef="0" IVar="5" Cut="4.3855720520019531e+01" cType="1" res="2.6280998717993498e-03" rms="1.7972017824649811e-01" purity="5.0095909833908081e-01" nType="0">
        <Node pos="l" depth="1" NCoef="0" IVar="-1" Cut="0.0000000000000000e+00" cType="1" res="-5.9071686118841171e-02" rms="1.6868928074836731e-01" purity="2.9533809050917625e-02" nType="-99"/>
        <Node pos="r" depth="1" NCoef="0" IVar="2" Cut="3.3333334326744080e-01" cType="1" res="1.1347794905304909e-02" rms="1.7799557745456696e-01" purity="5.4192882776260376e-01" nType="0">
          <Node pos="l" depth="2" NCoef="0" IVar="-1" Cut="0.0000000000000000e+00" cType="1" res="-1.5169504098594189e-02" rms="1.9167345762252808e-01" purity="1.3454093039035797e-01" nType="-99"/>
          <Node pos="r" depth="2" NCoef="0" IVar="-1" Cut="0.0000000000000000e+00" cType="1" res="3.3562410622835159e-02" rms="1.5659677982330322e-01" purity="9.3858790397644043e-01" nType="-99"/>
        </Node>
      </Node>
    </BinaryTree>
    <BinaryTree type="DecisionTree" boostWeight="1.0000000000000000e+00" itree="33">
      <Node pos="s" depth="0" NCoef="0" IVar="13" Cut="2.8719231486320496e-02" cType="1" res="1.9038945902138948e-04" rms="1.7773394286632538e-01" purity="4.9919325113296509e-01" nType="0">
        <Node pos="l" depth="1" NCoef="0" IVar="8" Cut="7.2664611816406250e+01" cType="1" res="2.5443367660045624e-02" rms="1.5544289350509644e-01" purity="7.0374453067779541e-01" nType="0">
          <Node pos="l" depth="2" NCoef="0" IVar="-1" Cut="0.0000000000000000e+00" cType="1" res="-1.5915706753730774e-02" rms="1.7487941682338715e-01" purity="1.0204417258501053e-01" nType="-99"/>
          <Node pos="r" depth="2" NCoef="0" IVar="-1" Cut="0.0000000000000000e+00" cType="1" res="3.4184459596872330e-02" rms="1.4292350411415100e-01" purity="9.4104647636413574e-01" nType="-99"/>
        </Node>
        <Node pos="r" depth="1" NCoef="0" IVar="17" Cut="1.3951282203197479e-01" cType="1" res="-3.1589243561029434e-02" rms="1.9779591262340546e-01" purity="2.4177546799182892e-01" nType="0">
          <Node pos="l" depth="2" NCoef="0" IVar="-1" Cut="0.0000000000000000e+00" cType="1" res="2.8198983520269394e-02" rms="2.0847567915916443e-01" purity="6.6797053813934326e-01" nType="-99"/>
          <Node pos="r" depth="2" NCoef="0" IVar="-1" Cut="0.0000000000000000e+00" cType="1" res="-2.8502758592367172e-02" rms="1.9368790090084076e-01" purity="1.8314358592033386e-01" nType="-99"/>
        </Node>
      </Node>
    </BinaryTree>
    <BinaryTree type="DecisionTree" boostWeight="1.0000000000000000e+00" itree="34">
      <Node pos="s" depth="0" NCoef="0" IVar="26" Cut="4.4418430328369141e+01" cType="1" res="-1.4926322037354112e-03" rms="1.7935761809349060e-01" purity="4.9759203195571899e-01" nType="0">
        <Node pos="l" depth="1" NCoef="0" IVar="26" Cut="6.3452153205871582e+00" cType="1" res="1.7144031822681427e-02" rms="1.8592628836631775e-01" purity="6.6228944063186646e-01" nType="0">
          <Node pos="l" depth="2" NCoef="0" IVar="-1" Cut="0.0000000000000000e+00" cType="1" res="4.8728559166193008e-02" rms="1.5330570936203003e-01" purity="9.1868883371353149e-01" nType="-99"/>
          <Node pos="r" depth="2" NCoef="0" IVar="-1" Cut="0.0000000000000000e+00" cType="1" res="-3.3957876265048981e-02" rms="2.0939004421234131e-01" purity="2.4676355719566345e-01" nType="-99"/>
        </Node>
        <Node pos="r" depth="1" NCoef="0" IVar="10" Cut="1.2032606638967991e-02" cType="1" res="-4.0482129901647568e-02" rms="1.5780535340309143e-01" purity="1.5303085744380951e-01" nType="0">
          <Node pos="l" depth="2" NCoef="0" IVar="-1" Cut="0.0000000000000000e+00" cType="1" res="6.5985745750367641e-03" rms="1.7596255242824554e-01" purity="6.2375080585479736e-01" nType="-99"/>
          <Node pos="r" depth="2" NCoef="0" IVar="-1" Cut="0.0000000000000000e+00" cType="1" res="-4.1806958615779877e-02" rms="1.5180864930152893e-01" purity="5.8301903307437897e-02" nType="-99"/>
        </Node>
      </Node>
    </BinaryTree>
    <BinaryTree type="DecisionTree" boostWeight="1.0000000000000000e+00" itree="35">
      <Node pos="s" depth="0" NCoef="0" IVar="5" Cut="7.5200546264648438e+01" cType="1" res="-1.9960587087552994e-04" rms="1.7707696557044983e-01" purity="4.9894437193870544e-01" nType="0">
        <Node pos="l" depth="1" NCoef="0" IVar="3" Cut="3.9279496669769287e-01" cType="1" res="-5.0100423395633698e-02" rms="1.8021792173385620e-01" purity="1.7114952206611633e-01" nType="0">
          <Node pos="l" depth="2" NCoef="0" IVar="-1" Cut="0.0000000000000000e+00" cType="1" res="1.3145770877599716e-02" rms="2.2760526835918427e-01" purity="6.1323225498199463e-01" nType="-99"/>
          <Node pos="r" depth="2" NCoef="0" IVar="-1" Cut="0.0000000000000000e+00" cType="1" res="-4.9138158559799194e-02" rms="1.6067063808441162e-01" purity="5.7887382805347443e-02" nType="-99"/>
        </Node>
        <Node pos="r" depth="1" NCoef="0" IVar="0" Cut="4.8181790113449097e-01" cType="1" res="1.2628180906176567e-02" rms="1.7396289110183716e-01" purity="5.8320921659469604e-01" nType="0">
          <Node pos="l" depth="2" NCoef="0" IVar="-1" Cut="0.0000000000000000e+00" cType="1" res="-1.6012929379940033e-02" rms="1.7159013450145721e-01" purity="1.9172520935535431e-01" nType="-99"/>
          <Node pos="r" depth="2" NCoef="0" IVar="-1" Cut="0.0000000000000000e+00" cType="1" res="2.6247652247548103e-02" rms="1.7211554944515228e-01" purity="8.4649425745010376e-01" nType="-99"/>
        </Node>
      </Node>
    </BinaryTree>
    <BinaryTree type="DecisionTree" boostWeight="1.0000000000000000e+00" itree="36">
      <Node pos="s" depth="0" NCoef="0" IVar="9" Cut="1.0517026297748089e-02" cType="1" res="3.8716889685019851e-04" rms="1.7313291132450104e-01" purity="4.9970105290412903e-01" nType="0">
        <Node pos="l" depth="1" NCoef="0" IVar="27" Cut="2.5818708419799805e+01" cType="1" res="2.3262545466423035e-02" rms="1.7102617025375366e-01" purity="8.2438623905181885e-01" nType="0">
          <Node pos="l" depth="2" NCoef="0" IVar="-1" Cut="0.0000000000000000e+00" cType="1" res="2.4833310395479202e-02" rms="1.6121353209018707e-01" purity="8.5080879926681519e-01" nType="-99"/>
          <Node pos="r" depth="2" NCoef="0" IVar="-1" Cut="0.0000000000000000e+00" cType="1" res="-5.2116990089416504e-02" rms="2.6712751388549805e-01" purity="3.4996113181114197e-01" nType="-99"/>
        </Node>
        <Node pos="r" depth="1" NCoef="0" IVar="20" Cut="1.4333333015441895e+01" cType="1" res="-2.6911925524473190e-02" rms="1.7166990041732788e-01" purity="1.1222717165946960e-01" nType="0">
          <Node pos="l" depth="2" NCoef="0" IVar="-1" Cut="0.0000000000000000e+00" cType="1" res="-3.1869236379861832e-02" rms="1.5709784626960754e-01" purity="5.8501299470663071e-02" nType="-99"/>
          <Node pos="r" depth="2" NCoef="0" IVar="-1" Cut="0.0000000000000000e+00" cType="1" res="2.7104631066322327e-02" rms="2.4659000337123871e-01" purity="5.6703627109527588e-01" nType="-99"/>
        </Node>
      </Node>
    </BinaryTree>
    <BinaryTree type="DecisionTree" boostWeight="1.0000000000000000e+00" itree="37">
      <Node pos="s" depth="0" NCoef="0" IVar="22" Cut="-2.0464744884520769e-03" cType="1" res="-4.5483879512175918e-04" rms="1.7795486748218536e-01" purity="5.0412303209304810e-01" nType="0">
        <Node pos="l" depth="1" NCoef="0" IVar="8" Cut="6.9838020324707031e+01" cType="1" res="-4.6252403408288956e-02" rms="1.8296656012535095e-01" purity="1.8289169669151306e-01" nType="0">
          <Node pos="l" depth="2" NCoef="0" IVar="-1" Cut="0.0000000000000000e+00" cType="1" res="-3.1474675983190536e-02" rms="1.3156844675540924e-01" purity="3.3702578395605087e-02" nType="-99"/>
          <Node pos="r" depth="2" NCoef="0" IVar="-1" Cut="0.0000000000000000e+00" cType="1" res="-3.8120731711387634e-02" rms="2.6453152298927307e-01" purity="5.3672027587890625e-01" nType="-99"/>
        </Node>
        <Node pos="r" depth="1" NCoef="0" IVar="8" Cut="4.9873401641845703e+01" cType="1" res="3.6806061863899231e-02" rms="1.6462515294551849e-01" purity="7.6547688245773315e-01" nType="0">
          <Node pos="l" depth="2" NCoef="0" IVar="-1" Cut="0.0000000000000000e+00" cType="1" res="-1.2575630098581314e-02" rms="2.1034799516201019e-01" purity="6.8613529205322266e-02" nType="-99"/>
          <Node pos="r" depth="2" NCoef="0" IVar="-1" Cut="0.0000000000000000e+00" cType="1" res="4.2077947407960892e-02" rms="1.4686301350593567e-01" purity="9.5208120346069336e-01" nType="-99"/>
        </Node>
      </Node>
    </BinaryTree>
    <BinaryTree type="DecisionTree" boostWeight="1.0000000000000000e+00" itree="38">
      <Node pos="s" depth="0" NCoef="0" IVar="5" Cut="5.8775382995605469e+01" cType="1" res="1.0945372050628066e-03" rms="1.6832873225212097e-01" purity="5.0085359811782837e-01" nType="0">
        <Node pos="l" depth="1" NCoef="0" IVar="8" Cut="4.9980651855468750e+01" cType="1" res="-5.7022616267204285e-02" rms="1.5407803654670715e-01" purity="9.3918979167938232e-02" nType="0">
          <Node pos="l" depth="2" NCoef="0" IVar="-1" Cut="0.0000000000000000e+00" cType="1" res="-4.7250334173440933e-02" rms="7.4220135807991028e-02" purity="6.5688276663422585e-03" nType="-99"/>
          <Node pos="r" depth="2" NCoef="0" IVar="-1" Cut="0.0000000000000000e+00" cType="1" res="-3.9201911538839340e-02" rms="2.4522195756435394e-01" purity="2.7904400229454041e-01" nType="-99"/>
        </Node>
        <Node pos="r" depth="1" NCoef="0" IVar="22" Cut="-5.8684688992798328e-03" cType="1" res="9.8229534924030304e-03" rms="1.6864500939846039e-01" purity="5.6196975708007812e-01" nType="0">
          <Node pos="l" depth="2" NCoef="0" IVar="-1" Cut="0.0000000000000000e+00" cType="1" res="-3.2314099371433258e-02" rms="1.6788564622402191e-01" purity="1.2255852669477463e-01" nType="-99"/>
          <Node pos="r" depth="2" NCoef="0" IVar="-1" Cut="0.0000000000000000e+00" cType="1" res="2.4320421740412712e-02" rms="1.6506147384643555e-01" purity="7.4483734369277954e-01" nType="-99"/>
        </Node>
      </Node>
    </BinaryTree>
    <BinaryTree type="DecisionTree" boostWeight="1.0000000000000000e+00" itree="39">
      <Node pos="s" depth="0" NCoef="0" IVar="5" Cut="3.7710075378417969e+01" cType="1" res="-1.6060852212831378e-03" rms="1.7232118546962738e-01" purity="4.9073639512062073e-01" nType="0">
        <Node pos="l" depth="1" NCoef="0" IVar="-1" Cut="0.0000000000000000e+00" cType="1" res="-5.8894518762826920e-02" rms="1.3710781931877136e-01" purity="2.0086746662855148e-02" nType="-99"/>
        <Node pos="r" depth="1" NCoef="0" IVar="2" Cut="6.6666668653488159e-01" cType="1" res="3.7919157184660435e-03" rms="1.7331959307193756e-01" purity="5.2446430921554565e-01" nType="0">
          <Node pos="l" depth="2" NCoef="0" IVar="-1" Cut="0.0000000000000000e+00" cType="1" res="-1.2173105962574482e-02" rms="2.0635896921157837e-01" purity="2.3281918466091156e-01" nType="-99"/>
          <Node pos="r" depth="2" NCoef="0" IVar="-1" Cut="0.0000000000000000e+00" cType="1" res="4.6481627970933914e-02" rms="9.0592846274375916e-02" purity="9.8939990997314453e-01" nType="-99"/>
        </Node>
      </Node>
    </BinaryTree>
    <BinaryTree type="DecisionTree" boostWeight="1.0000000000000000e+00" itree="40">
      <Node pos="s" depth="0" NCoef="0" IVar="17" Cut="2.3074193298816681e-01" cType="1" res="1.7568959156051278e-03" rms="1.6787976026535034e-01" purity="5.0364768505096436e-01" nType="0">
        <Node pos="l" depth="1" NCoef="0" IVar="0" Cut="4.2449674010276794e-01" cType="1" res="2.3666094988584518e-02" rms="1.6362728178501129e-01" purity="7.2205060720443726e-01" nType="0">
          <Node pos="l" depth="2" NCoef="0" IVar="-1" Cut="0.0000000000000000e+00" cType="1" res="-1.5499144792556763e-02" rms="1.8328686058521271e-01" purity="2.2807554900646210e-01" nType="-99"/>
          <Node pos="r" depth="2" NCoef="0" IVar="-1" Cut="0.0000000000000000e+00" cType="1" res="3.4909050911664963e-02" rms="1.5387478470802307e-01" purity="8.8414478302001953e-01" nType="-99"/>
        </Node>
        <Node pos="r" depth="1" NCoef="0" IVar="9" Cut="9.7010005265474319e-03" cType="1" res="-1.7864458262920380e-02" rms="1.6920769214630127e-01" purity="3.0805128812789917e-01" nType="0">
          <Node pos="l" depth="2" NCoef="0" IVar="-1" Cut="0.0000000000000000e+00" cType="1" res="1.9355488941073418e-02" rms="1.7648611962795258e-01" purity="8.7201219797134399e-01" nType="-99"/>
          <Node pos="r" depth="2" NCoef="0" IVar="-1" Cut="0.0000000000000000e+00" cType="1" res="-2.8996681794524193e-02" rms="1.6356495022773743e-01" purity="8.4328390657901764e-02" nType="-99"/>
        </Node>
      </Node>
    </BinaryTree>
    <BinaryTree type="DecisionTree" boostWeight="1.0000000000000000e+00" itree="41">
      <Node pos="s" depth="0" NCoef="0" IVar="13" Cut="2.8719229623675346e-02" cType="1" res="5.7705381186679006e-04" rms="1.7046885192394257e-01" purity="4.9829736351966858e-01" nType="0">
        <Node pos="l" depth="1" NCoef="0" IVar="1" Cut="8.0952644348144531e-01" cType="1" res="1.7327621579170227e-02" rms="1.5262776613235474e-01" purity="7.0257639884948730e-01" nType="0">
          <Node pos="l" depth="2" NCoef="0" IVar="-1" Cut="0.0000000000000000e+00" cType="1" res="2.4709757417440414e-02" rms="1.5246129035949707e-01" purity="8.2977616786956787e-01" nType="-99"/>
          <Node pos="r" depth="2" NCoef="0" IVar="-1" Cut="0.0000000000000000e+00" cType="1" res="-3.3878348767757416e-02" rms="1.4449453353881836e-01" purity="3.4811988472938538e-02" nType="-99"/>
        </Node>
        <Node pos="r" depth="1" NCoef="0" IVar="2" Cut="7.1428573131561279e-01" cType="1" res="-2.0442178472876549e-02" rms="1.8841207027435303e-01" purity="2.4196052551269531e-01" nType="0">
          <Node pos="l" depth="2" NCoef="0" IVar="-1" Cut="0.0000000000000000e+00" cType="1" res="-2.2041430696845055e-02" rms="1.9243183732032776e-01" purity="1.2862655520439148e-01" nType="-99"/>
          <Node pos="r" depth="2" NCoef="0" IVar="-1" Cut="0.0000000000000000e+00" cType="1" res="1.6922650858759880e-02" rms="1.5761564671993256e-01" purity="8.8620120286941528e-01" nType="-99"/>
        </Node>
      </Node>
    </BinaryTree>
    <BinaryTree type="DecisionTree" boostWeight="1.0000000000000000e+00" itree="42">
      <Node pos="s" depth="0" NCoef="0" IVar="5" Cut="7.5391937255859375e+01" cType="1" res="-1.8237498588860035e-03" rms="1.7085127532482147e-01" purity="4.9819958209991455e-01" nType="0">
        <Node pos="l" depth="1" NCoef="0" IVar="1" Cut="2.8571614623069763e-01" cType="1" res="-4.1250236332416534e-02" rms="1.7271034419536591e-01" purity="1.7020677030086517e-01" nType="0">
          <Node pos="l" depth="2" NCoef="0" IVar="-1" Cut="0.0000000000000000e+00" cType="1" res="-5.2931137382984161e-02" rms="2.5509756803512573e-01" purity="3.7420022487640381e-01" nType="-99"/>
          <Node pos="r" depth="2" NCoef="0" IVar="-1" Cut="0.0000000000000000e+00" cType="1" res="-2.7591811493039131e-02" rms="1.4470675587654114e-01" purity="1.2478733062744141e-01" nType="-99"/>
        </Node>
        <Node pos="r" depth="1" NCoef="0" IVar="13" Cut="3.9298757910728455e-02" cType="1" res="8.0139450728893280e-03" rms="1.6895602643489838e-01" purity="5.8004033565521240e-01" nType="0">
          <Node pos="l" depth="2" NCoef="0" IVar="-1" Cut="0.0000000000000000e+00" cType="1" res="1.9086040556430817e-02" rms="1.5502218902111053e-01" purity="7.4193763732910156e-01" nType="-99"/>
          <Node pos="r" depth="2" NCoef="0" IVar="-1" Cut="0.0000000000000000e+00" cType="1" res="-1.8255179747939110e-02" rms="1.9664226472377777e-01" purity="1.7259262502193451e-01" nType="-99"/>
        </Node>
      </Node>
    </BinaryTree>
    <BinaryTree type="DecisionTree" boostWeight="1.0000000000000000e+00" itree="43">
      <Node pos="s" depth="0" NCoef="0" IVar="17" Cut="1.3951282203197479e-01" cType="1" res="-8.7561219697818160e-04" rms="1.6663207113742828e-01" purity="4.9728646874427795e-01" nType="0">
        <Node pos="l" depth="1" NCoef="0" IVar="2" Cut="9.5238141715526581e-02" cType="1" res="3.2537449151277542e-02" rms="1.3395094871520996e-01" purity="8.3226853609085083e-01" nType="0">
          <Node pos="l" depth="2" NCoef="0" IVar="-1" Cut="0.0000000000000000e+00" cType="1" res="-3.0150564853101969e-03" rms="2.0411047339439392e-01" purity="2.1529273688793182e-01" nType="-99"/>
          <Node pos="r" depth="2" NCoef="0" IVar="-1" Cut="0.0000000000000000e+00" cType="1" res="4.4865265488624573e-02" rms="1.1424487084150314e-01" purity="9.5094251632690430e-01" nType="-99"/>
        </Node>
        <Node pos="r" depth="1" NCoef="0" IVar="10" Cut="1.2032606638967991e-02" cType="1" res="-9.7912829369306564e-03" rms="1.7323409020900726e-01" purity="4.0790253877639771e-01" nType="0">
          <Node pos="l" depth="2" NCoef="0" IVar="-1" Cut="0.0000000000000000e+00" cType="1" res="1.9137358292937279e-02" rms="1.3409939408302307e-01" purity="8.3615642786026001e-01" nType="-99"/>
          <Node pos="r" depth="2" NCoef="0" IVar="-1" Cut="0.0000000000000000e+00" cType="1" res="-1.8662694841623306e-02" rms="1.8637564778327942e-01" purity="2.2247923910617828e-01" nType="-99"/>
        </Node>
      </Node>
    </BinaryTree>
    <BinaryTree type="DecisionTree" boostWeight="1.0000000000000000e+00" itree="44">
      <Node pos="s" depth="0" NCoef="0" IVar="26" Cut="4.3429347991943359e+01" cType="1" res="1.5752755571156740e-03" rms="1.6251368820667267e-01" purity="4.9816477298736572e-01" nType="0">
        <Node pos="l" depth="1" NCoef="0" IVar="26" Cut="6.2035374641418457e+00" cType="1" res="1.3969697989523411e-02" rms="1.6708812117576599e-01" purity="6.6504877805709839e-01" nType="0">
          <Node pos="l" depth="2" NCoef="0" IVar="-1" Cut="0.0000000000000000e+00" cType="1" res="4.8982486128807068e-02" rms="1.3862624764442444e-01" purity="9.2826372385025024e-01" nType="-99"/>
          <Node pos="r" depth="2" NCoef="0" IVar="-1" Cut="0.0000000000000000e+00" cType="1" res="-2.7342600747942924e-02" rms="1.9310730695724487e-01" purity="2.5690481066703796e-01" nType="-99"/>
        </Node>
        <Node pos="r" depth="1" NCoef="0" IVar="10" Cut="1.1837929487228394e-02" cType="1" res="-2.3953303694725037e-02" rms="1.4945602416992188e-01" purity="1.5443660318851471e-01" nType="0">
          <Node pos="l" depth="2" NCoef="0" IVar="-1" Cut="0.0000000000000000e+00" cType="1" res="6.8215825594961643e-03" rms="1.6579480469226837e-01" purity="6.4355546236038208e-01" nType="-99"/>
          <Node pos="r" depth="2" NCoef="0" IVar="-1" Cut="0.0000000000000000e+00" cType="1" res="-3.2457705587148666e-02" rms="1.4535403251647949e-01" purity="6.2792621552944183e-02" nType="-99"/>
        </Node>
      </Node>
    </BinaryTree>
    <BinaryTree type="DecisionTree" boostWeight="1.0000000000000000e+00" itree="45">
      <Node pos="s" depth="0" NCoef="0" IVar="17" Cut="1.8601711094379425e-01" cType="1" res="-1.4568946789950132e-03" rms="1.6654913127422333e-01" purity="4.9128323793411255e-01" nType="0">
        <Node pos="l" depth="1" NCoef="0" IVar="1" Cut="8.0952537059783936e-01" cType="1" res="1.9765641540288925e-02" rms="1.5361297130584717e-01" purity="7.6283389329910278e-01" nType="0">
          <Node pos="l" depth="2" NCoef="0" IVar="-1" Cut="0.0000000000000000e+00" cType="1" res="3.0118850991129875e-02" rms="1.5114958584308624e-01" purity="8.8053959608078003e-01" nType="-99"/>
          <Node pos="r" depth="2" NCoef="0" IVar="-1" Cut="0.0000000000000000e+00" cType="1" res="-3.2007809728384018e-02" rms="1.5577173233032227e-01" purity="4.5820940285921097e-02" nType="-99"/>
        </Node>
        <Node pos="r" depth="1" NCoef="0" IVar="28" Cut="3.1283411663025618e-03" cType="1" res="-1.3536681421101093e-02" rms="1.7231875658035278e-01" purity="3.3671760559082031e-01" nType="0">
          <Node pos="l" depth="2" NCoef="0" IVar="-1" Cut="0.0000000000000000e+00" cType="1" res="-5.0294240936636925e-03" rms="1.7029853165149689e-01" purity="4.1162046790122986e-01" nType="-99"/>
          <Node pos="r" depth="2" NCoef="0" IVar="-1" Cut="0.0000000000000000e+00" cType="1" res="-4.3394774198532104e-02" rms="1.7634724080562592e-01" purity="4.8739425837993622e-02" nType="-99"/>
        </Node>
      </Node>
    </BinaryTree>
    <BinaryTree type="DecisionTree" boostWeight="1.0000000000000000e+00" itree="46">
      <Node pos="s" depth="0" NCoef="0" IVar="17" Cut="2.7748760581016541e-01" cType="1" res="2.1939761063549668e-04" rms="1.5941500663757324e-01" purity="5.0052529573440552e-01" nType="0">
        <Node pos="l" depth="1" NCoef="0" IVar="9" Cut="1.9984861835837364e-02" cType="1" res="1.3817043043673038e-02" rms="1.5696910023689270e-01" purity="6.8768459558486938e-01" nType="0">
          <Node pos="l" depth="2" NCoef="0" IVar="-1" Cut="0.0000000000000000e+00" cType="1" res="8.2080252468585968e-03" rms="1.5167869627475739e-01" purity="6.8433779478073120e-01" nType="-99"/>
          <Node pos="r" depth="2" NCoef="0" IVar="-1" Cut="0.0000000000000000e+00" cType="1" res="5.8320432901382446e-02" rms="2.0204110443592072e-01" purity="7.4103683233261108e-01" nType="-99"/>
        </Node>
        <Node pos="r" depth="1" NCoef="0" IVar="9" Cut="1.0489528998732567e-02" cType="1" res="-1.6631614416837692e-02" rms="1.6080749034881592e-01" purity="2.6858633756637573e-01" nType="0">
          <Node pos="l" depth="2" NCoef="0" IVar="-1" Cut="0.0000000000000000e+00" cType="1" res="1.1312156915664673e-02" rms="1.7272527515888214e-01" purity="8.0548185110092163e-01" nType="-99"/>
          <Node pos="r" depth="2" NCoef="0" IVar="-1" Cut="0.0000000000000000e+00" cType="1" res="-2.8073942288756371e-02" rms="1.5459366142749786e-01" purity="6.4471930265426636e-02" nType="-99"/>
        </Node>
      </Node>
    </BinaryTree>
    <BinaryTree type="DecisionTree" boostWeight="1.0000000000000000e+00" itree="47">
      <Node pos="s" depth="0" NCoef="0" IVar="9" Cut="1.0184427723288536e-02" cType="1" res="1.6322560841217637e-03" rms="1.5981979668140411e-01" purity="4.9746173620223999e-01" nType="0">
        <Node pos="l" depth="1" NCoef="0" IVar="28" Cut="1.6907680546864867e-03" cType="1" res="1.6206793487071991e-02" rms="1.5518614649772644e-01" purity="8.4430104494094849e-01" nType="0">
          <Node pos="l" depth="2" NCoef="0" IVar="-1" Cut="0.0000000000000000e+00" cType="1" res="2.2848242893815041e-02" rms="1.4330618083477020e-01" purity="8.8003772497177124e-01" nType="-99"/>
          <Node pos="r" depth="2" NCoef="0" IVar="-1" Cut="0.0000000000000000e+00" cType="1" res="-2.1084556356072426e-02" rms="2.3560647666454315e-01" purity="5.0118917226791382e-01" nType="-99"/>
        </Node>
        <Node pos="r" depth="1" NCoef="0" IVar="9" Cut="2.1825961768627167e-02" cType="1" res="-1.4412787742912769e-02" rms="1.6327270865440369e-01" purity="1.1562781035900116e-01" nType="0">
          <Node pos="l" depth="2" NCoef="0" IVar="-1" Cut="0.0000000000000000e+00" cType="1" res="-2.7706598863005638e-02" rms="1.4847397804260254e-01" purity="5.3308270871639252e-02" nType="-99"/>
          <Node pos="r" depth="2" NCoef="0" IVar="-1" Cut="0.0000000000000000e+00" cType="1" res="1.8764195963740349e-02" rms="2.1000146865844727e-01" purity="3.8319745659828186e-01" nType="-99"/>
        </Node>
      </Node>
    </BinaryTree>
    <BinaryTree type="DecisionTree" boostWeight="1.0000000000000000e+00" itree="48">
      <Node pos="s" depth="0" NCoef="0" IVar="2" Cut="7.1428573131561279e-01" cType="1" res="4.4370023533701897e-04" rms="1.6551139950752258e-01" purity="4.9699735641479492e-01" nType="0">
        <Node pos="l" depth="1" NCoef="0" IVar="5" Cut="9.3846961975097656e+01" cType="1" res="-1.1736455373466015e-02" rms="1.9461882114410400e-01" purity="2.4425466358661652e-01" nType="0">
          <Node pos="l" depth="2" NCoef="0" IVar="-1" Cut="0.0000000000000000e+00" cType="1" res="-3.4362643957138062e-02" rms="1.6775192320346832e-01" purity="9.6787743270397186e-02" nType="-99"/>
          <Node pos="r" depth="2" NCoef="0" IVar="-1" Cut="0.0000000000000000e+00" cType="1" res="7.1964884409680963e-04" rms="2.0686830580234528e-01" purity="3.2558572292327881e-01" nType="-99"/>
        </Node>
        <Node pos="r" depth="1" NCoef="0" IVar="9" Cut="1.8050208687782288e-02" cType="1" res="2.3172024637460709e-02" rms="8.3905890583992004e-02" purity="9.6861839294433594e-01" nType="0">
          <Node pos="l" depth="2" NCoef="0" IVar="-1" Cut="0.0000000000000000e+00" cType="1" res="3.4955117851495743e-02" rms="7.8121215105056763e-02" purity="9.7135776281356812e-01" nType="-99"/>
          <Node pos="r" depth="2" NCoef="0" IVar="-1" Cut="0.0000000000000000e+00" cType="1" res="4.8105567693710327e-02" rms="1.1842608451843262e-01" purity="9.3672269582748413e-01" nType="-99"/>
        </Node>
      </Node>
    </BinaryTree>
    <BinaryTree type="DecisionTree" boostWeight="1.0000000000000000e+00" itree="49">
      <Node pos="s" depth="0" NCoef="0" IVar="5" Cut="4.3855720520019531e+01" cType="1" res="-5.6555308401584625e-04" rms="1.6253663599491119e-01" purity="4.9676200747489929e-01" nType="0">
        <Node pos="l" depth="1" NCoef="0" IVar="-1" Cut="0.0000000000000000e+00" cType="1" res="-5.1143284887075424e-02" rms="1.3573092222213745e-01" purity="2.6201147586107254e-02" nType="-99"/>
        <Node pos="r" depth="1" NCoef="0" IVar="0" Cut="4.3257054686546326e-01" cType="1" res="3.9215725846588612e-03" rms="1.6415701806545258e-01" purity="5.4155260324478149e-01" nType="0">
          <Node pos="l" depth="2" NCoef="0" IVar="-1" Cut="0.0000000000000000e+00" cType="1" res="-1.8396191298961639e-02" rms="1.5152746438980103e-01" purity="1.2975451350212097e-01" nType="-99"/>
          <Node pos="r" depth="2" NCoef="0" IVar="-1" Cut="0.0000000000000000e+00" cType="1" res="1.4809801243245602e-02" rms="1.6972291469573975e-01" purity="7.6922947168350220e-01" nType="-99"/>
        </Node>
      </Node>
    </BinaryTree>
    <BinaryTree type="DecisionTree" boostWeight="1.0000000000000000e+00" itree="50">
      <Node pos="s" depth="0" NCoef="0" IVar="2" Cut="7.6190477609634399e-01" cType="1" res="-8.7310478556901217e-04" rms="1.6224265098571777e-01" purity="5.0580990314483643e-01" nType="0">
        <Node pos="l" depth="1" NCoef="0" IVar="17" Cut="1.3829216361045837e-01" cType="1" res="-1.1252347379922867e-02" rms="1.8905818462371826e-01" purity="2.8070780634880066e-01" nType="0">
          <Node pos="l" depth="2" NCoef="0" IVar="-1" Cut="0.0000000000000000e+00" cType="1" res="2.2207677364349365e-02" rms="1.8651278316974640e-01" purity="6.8297266960144043e-01" nType="-99"/>
          <Node pos="r" depth="2" NCoef="0" IVar="-1" Cut="0.0000000000000000e+00" cType="1" res="-1.6245268285274506e-02" rms="1.8856978416442871e-01" purity="2.1875646710395813e-01" nType="-99"/>
        </Node>
        <Node pos="r" depth="1" NCoef="0" IVar="10" Cut="1.9582454115152359e-02" cType="1" res="2.0473815500736237e-02" rms="7.9187817871570587e-02" purity="9.6877604722976685e-01" nType="0">
          <Node pos="l" depth="2" NCoef="0" IVar="-1" Cut="0.0000000000000000e+00" cType="1" res="3.5994112491607666e-02" rms="6.9093331694602966e-02" purity="9.7543179988861084e-01" nType="-99"/>
          <Node pos="r" depth="2" NCoef="0" IVar="-1" Cut="0.0000000000000000e+00" cType="1" res="3.7782333791255951e-02" rms="1.4274735748767853e-01" purity="8.9811021089553833e-01" nType="-99"/>
        </Node>
      </Node>
    </BinaryTree>
    <BinaryTree type="DecisionTree" boostWeight="1.0000000000000000e+00" itree="51">
      <Node pos="s" depth="0" NCoef="0" IVar="5" Cut="7.5200546264648438e+01" cType="1" res="6.4705556724220514e-04" rms="1.5795187652111053e-01" purity="5.0278019905090332e-01" nType="0">
        <Node pos="l" depth="1" NCoef="0" IVar="8" Cut="1.8361970520019531e+02" cType="1" res="-3.1207688152790070e-02" rms="1.6549347341060638e-01" purity="1.7462244629859924e-01" nType="0">
          <Node pos="l" depth="2" NCoef="0" IVar="-1" Cut="0.0000000000000000e+00" cType="1" res="-2.2167174145579338e-02" rms="1.4772623777389526e-01" purity="1.3014769554138184e-01" nType="-99"/>
          <Node pos="r" depth="2" NCoef="0" IVar="-1" Cut="0.0000000000000000e+00" cType="1" res="-5.0204060971736908e-02" rms="2.2627584636211395e-01" purity="4.0109819173812866e-01" nType="-99"/>
        </Node>
        <Node pos="r" depth="1" NCoef="0" IVar="0" Cut="4.9155667424201965e-01" cType="1" res="8.4605496376752853e-03" rms="1.5505006909370422e-01" purity="5.8327239751815796e-01" nType="0">
          <Node pos="l" depth="2" NCoef="0" IVar="-1" Cut="0.0000000000000000e+00" cType="1" res="-9.9121611565351486e-03" rms="1.5521392226219177e-01" purity="2.0307500660419464e-01" nType="-99"/>
          <Node pos="r" depth="2" NCoef="0" IVar="-1" Cut="0.0000000000000000e+00" cType="1" res="2.3313853889703751e-02" rms="1.5365877747535706e-01" purity="8.5811227560043335e-01" nType="-99"/>
        </Node>
      </Node>
    </BinaryTree>
    <BinaryTree type="DecisionTree" boostWeight="1.0000000000000000e+00" itree="52">
      <Node pos="s" depth="0" NCoef="0" IVar="22" Cut="-7.6811485923826694e-03" cType="1" res="3.1199102522805333e-04" rms="1.6173380613327026e-01" purity="5.0398343801498413e-01" nType="0">
        <Node pos="l" depth="1" NCoef="0" IVar="8" Cut="1.4322769165039062e+02" cType="1" res="-2.8224203735589981e-02" rms="1.5311001241207123e-01" purity="9.1663576662540436e-02" nType="0">
          <Node pos="l" depth="2" NCoef="0" IVar="-1" Cut="0.0000000000000000e+00" cType="1" res="-2.5880480185151100e-02" rms="1.2853160500526428e-01" purity="4.7604911029338837e-02" nType="-99"/>
          <Node pos="r" depth="2" NCoef="0" IVar="-1" Cut="0.0000000000000000e+00" cType="1" res="-5.5952250957489014e-02" rms="2.5827240943908691e-01" purity="4.0808674693107605e-01" nType="-99"/>
        </Node>
        <Node pos="r" depth="1" NCoef="0" IVar="10" Cut="2.2069854661822319e-02" cType="1" res="1.2582435272634029e-02" rms="1.6378220915794373e-01" purity="6.8127930164337158e-01" nType="0">
          <Node pos="l" depth="2" NCoef="0" IVar="-1" Cut="0.0000000000000000e+00" cType="1" res="8.7042804807424545e-03" rms="1.5712970495223999e-01" purity="6.9458067417144775e-01" nType="-99"/>
          <Node pos="r" depth="2" NCoef="0" IVar="-1" Cut="0.0000000000000000e+00" cType="1" res="3.3512648195028305e-02" rms="2.1041531860828400e-01" purity="5.5901753902435303e-01" nType="-99"/>
        </Node>
      </Node>
    </BinaryTree>
    <BinaryTree type="DecisionTree" boostWeight="1.0000000000000000e+00" itree="53">
      <Node pos="s" depth="0" NCoef="0" IVar="12" Cut="1.0445065796375275e-02" cType="1" res="-4.1105668060481548e-04" rms="1.5962682664394379e-01" purity="4.9762231111526489e-01" nType="0">
        <Node pos="l" depth="1" NCoef="0" IVar="1" Cut="8.0952715873718262e-01" cType="1" res="9.8971473053097725e-03" rms="1.4696176350116730e-01" purity="6.5155076980590820e-01" nType="0">
          <Node pos="l" depth="2" NCoef="0" IVar="-1" Cut="0.0000000000000000e+00" cType="1" res="1.9914474338293076e-02" rms="1.4882588386535645e-01" purity="8.0541098117828369e-01" nType="-99"/>
          <Node pos="r" depth="2" NCoef="0" IVar="-1" Cut="0.0000000000000000e+00" cType="1" res="-2.4452757090330124e-02" rms="1.3553169369697571e-01" purity="3.4175373613834381e-02" nType="-99"/>
        </Node>
        <Node pos="r" depth="1" NCoef="0" IVar="9" Cut="2.1479289978742599e-02" cType="1" res="-1.7532309517264366e-02" rms="1.7737093567848206e-01" purity="2.4195709824562073e-01" nType="0">
          <Node pos="l" depth="2" NCoef="0" IVar="-1" Cut="0.0000000000000000e+00" cType="1" res="-3.0499277636408806e-02" rms="1.6740529239177704e-01" purity="2.0144677162170410e-01" nType="-99"/>
          <Node pos="r" depth="2" NCoef="0" IVar="-1" Cut="0.0000000000000000e+00" cType="1" res="2.0391315221786499e-02" rms="2.0323704183101654e-01" purity="3.9090916514396667e-01" nType="-99"/>
        </Node>
      </Node>
    </BinaryTree>
    <BinaryTree type="DecisionTree" boostWeight="1.0000000000000000e+00" itree="54">
      <Node pos="s" depth="0" NCoef="0" IVar="13" Cut="2.8719229623675346e-02" cType="1" res="3.2460206421092153e-04" rms="1.6094608604907990e-01" purity="4.9920421838760376e-01" nType="0">
        <Node pos="l" depth="1" NCoef="0" IVar="0" Cut="4.2278113961219788e-01" cType="1" res="1.0441308841109276e-02" rms="1.4067094027996063e-01" purity="6.9899022579193115e-01" nType="0">
          <Node pos="l" depth="2" NCoef="0" IVar="-1" Cut="0.0000000000000000e+00" cType="1" res="-1.3954223133623600e-02" rms="1.5117534995079041e-01" purity="1.7834845185279846e-01" nType="-99"/>
          <Node pos="r" depth="2" NCoef="0" IVar="-1" Cut="0.0000000000000000e+00" cType="1" res="2.2737750783562660e-02" rms="1.3628190755844116e-01" purity="8.6696487665176392e-01" nType="-99"/>
        </Node>
        <Node pos="r" depth="1" NCoef="0" IVar="22" Cut="-2.2219675593078136e-03" cType="1" res="-1.2576438486576080e-02" rms="1.8277058005332947e-01" purity="2.4443294107913971e-01" nType="0">
          <Node pos="l" depth="2" NCoef="0" IVar="-1" Cut="0.0000000000000000e+00" cType="1" res="-3.3466458320617676e-02" rms="1.6317223012447357e-01" purity="8.8576868176460266e-02" nType="-99"/>
          <Node pos="r" depth="2" NCoef="0" IVar="-1" Cut="0.0000000000000000e+00" cType="1" res="1.8197936937212944e-02" rms="2.1306724846363068e-01" purity="5.6333714723587036e-01" nType="-99"/>
        </Node>
      </Node>
    </BinaryTree>
    <BinaryTree type="DecisionTree" boostWeight="1.0000000000000000e+00" itree="55">
      <Node pos="s" depth="0" NCoef="0" IVar="2" Cut="7.1428573131561279e-01" cType="1" res="3.2427684345748276e-05" rms="1.5854103863239288e-01" purity="5.0408703088760376e-01" nType="0">
        <Node pos="l" depth="1" NCoef="0" IVar="5" Cut="2.1895449829101562e+02" cType="1" res="-9.2010432854294777e-03" rms="1.8830201029777527e-01" purity="2.4775171279907227e-01" nType="0">
          <Node pos="l" depth="2" NCoef="0" IVar="-1" Cut="0.0000000000000000e+00" cType="1" res="-1.2091108597815037e-02" rms="1.8468862771987915e-01" purity="2.3491939902305603e-01" nType="-99"/>
          <Node pos="r" depth="2" NCoef="0" IVar="-1" Cut="0.0000000000000000e+00" cType="1" res="4.7489110380411148e-02" rms="2.3748737573623657e-01" purity="5.0445878505706787e-01" nType="-99"/>
        </Node>
        <Node pos="r" depth="1" NCoef="0" IVar="9" Cut="1.6944132745265961e-02" cType="1" res="1.6819346696138382e-02" rms="7.7018439769744873e-02" purity="9.7011762857437134e-01" nType="0">
          <Node pos="l" depth="2" NCoef="0" IVar="-1" Cut="0.0000000000000000e+00" cType="1" res="3.0540542677044868e-02" rms="7.2825402021408081e-02" purity="9.7349238395690918e-01" nType="-99"/>
          <Node pos="r" depth="2" NCoef="0" IVar="-1" Cut="0.0000000000000000e+00" cType="1" res="4.5423362404108047e-02" rms="1.0586587339639664e-01" purity="9.3042224645614624e-01" nType="-99"/>
        </Node>
      </Node>
    </BinaryTree>
    <BinaryTree type="DecisionTree" boostWeight="1.0000000000000000e+00" itree="56">
      <Node pos="s" depth="0" NCoef="0" IVar="5" Cut="3.1256916046142578e+01" cType="1" res="2.1163743804208934e-04" rms="1.5742500126361847e-01" purity="4.9859213829040527e-01" nType="0">
        <Node pos="l" depth="1" NCoef="0" IVar="-1" Cut="0.0000000000000000e+00" cType="1" res="-5.7652402669191360e-02" rms="1.1371529102325439e-01" purity="1.0313191451132298e-02" nType="-99"/>
        <Node pos="r" depth="1" NCoef="0" IVar="2" Cut="6.6666668653488159e-01" cType="1" res="3.0919180717319250e-03" rms="1.5902814269065857e-01" purity="5.2593833208084106e-01" nType="0">
          <Node pos="l" depth="2" NCoef="0" IVar="-1" Cut="0.0000000000000000e+00" cType="1" res="-5.7192156091332436e-03" rms="1.9034616649150848e-01" purity="2.3691129684448242e-01" nType="-99"/>
          <Node pos="r" depth="2" NCoef="0" IVar="-1" Cut="0.0000000000000000e+00" cType="1" res="3.7432875484228134e-02" rms="8.6420647799968719e-02" purity="9.8677730560302734e-01" nType="-99"/>
        </Node>
      </Node>
    </BinaryTree>
    <BinaryTree type="DecisionTree" boostWeight="1.0000000000000000e+00" itree="57">
      <Node pos="s" depth="0" NCoef="0" IVar="5" Cut="8.7491844177246094e+01" cType="1" res="7.6434481889009476e-04" rms="1.5714091062545776e-01" purity="4.9577853083610535e-01" nType="0">
        <Node pos="l" depth="1" NCoef="0" IVar="1" Cut="2.3809680342674255e-01" cType="1" res="-1.8179977312684059e-02" rms="1.6109363734722137e-01" purity="2.2857697308063507e-01" nType="0">
          <Node pos="l" depth="2" NCoef="0" IVar="-1" Cut="0.0000000000000000e+00" cType="1" res="-4.1450619697570801e-02" rms="2.2147884964942932e-01" purity="5.0283175706863403e-01" nType="-99"/>
          <Node pos="r" depth="2" NCoef="0" IVar="-1" Cut="0.0000000000000000e+00" cType="1" res="-1.2612518854439259e-02" rms="1.4445516467094421e-01" purity="1.7293992638587952e-01" nType="-99"/>
        </Node>
        <Node pos="r" depth="1" NCoef="0" IVar="10" Cut="2.3675858974456787e-02" cType="1" res="7.4154287576675415e-03" rms="1.5518182516098022e-01" purity="5.8958917856216431e-01" nType="0">
          <Node pos="l" depth="2" NCoef="0" IVar="-1" Cut="0.0000000000000000e+00" cType="1" res="3.8349516689777374e-03" rms="1.4709535241127014e-01" purity="5.9837263822555542e-01" nType="-99"/>
          <Node pos="r" depth="2" NCoef="0" IVar="-1" Cut="0.0000000000000000e+00" cType="1" res="3.5383637994527817e-02" rms="2.1660934388637543e-01" purity="4.9926257133483887e-01" nType="-99"/>
        </Node>
      </Node>
    </BinaryTree>
    <BinaryTree type="DecisionTree" boostWeight="1.0000000000000000e+00" itree="58">
      <Node pos="s" depth="0" NCoef="0" IVar="23" Cut="2.2984798997640610e-03" cType="1" res="1.5518552390858531e-03" rms="1.5752677619457245e-01" purity="5.0021249055862427e-01" nType="0">
        <Node pos="l" depth="1" NCoef="0" IVar="26" Cut="4.3429347991943359e+01" cType="1" res="6.9419192150235176e-03" rms="1.5612947940826416e-01" purity="5.7761120796203613e-01" nType="0">
          <Node pos="l" depth="2" NCoef="0" IVar="-1" Cut="0.0000000000000000e+00" cType="1" res="1.8717661499977112e-02" rms="1.5612085163593292e-01" purity="7.3634886741638184e-01" nType="-99"/>
          <Node pos="r" depth="2" NCoef="0" IVar="-1" Cut="0.0000000000000000e+00" cType="1" res="-1.5359540469944477e-02" rms="1.5426586568355560e-01" purity="2.0317685604095459e-01" nType="-99"/>
        </Node>
        <Node pos="r" depth="1" NCoef="0" IVar="8" Cut="9.1436614990234375e+01" cType="1" res="-2.5279844179749489e-02" rms="1.6165344417095184e-01" purity="1.1492191255092621e-01" nType="0">
          <Node pos="l" depth="2" NCoef="0" IVar="-1" Cut="0.0000000000000000e+00" cType="1" res="-2.5155583396553993e-02" rms="1.3201530277729034e-01" purity="3.5974413156509399e-02" nType="-99"/>
          <Node pos="r" depth="2" NCoef="0" IVar="-1" Cut="0.0000000000000000e+00" cType="1" res="-3.4097313880920410e-02" rms="2.4768739938735962e-01" purity="4.4979304075241089e-01" nType="-99"/>
        </Node>
      </Node>
    </BinaryTree>
    <BinaryTree type="DecisionTree" boostWeight="1.0000000000000000e+00" itree="59">
      <Node pos="s" depth="0" NCoef="0" IVar="13" Cut="3.8713250309228897e-02" cType="1" res="6.1732612084597349e-04" rms="1.5897630155086517e-01" purity="4.9936023354530334e-01" nType="0">
